1.0 3.7 41.6 -82.8 3.0 2.02 0.18 0.02 -3.0 -18.0 22.0 387.0 525.0 -267.0 132.0 -43.7 -53.6 38.0 2.65 -0.61 -0.02 143.0 30.0 -346.0 556.0 -205.0 -374.0 51.23554 11.698847 104.264725 4.0 -0.31 0.16 0.08 5.0 21.0 37.0 -471.0 191.0 277.0 -111.0 26.5 138.0 30.0 -0.05 -0.37 -0.43 -170.0 155.0 184.0 -1160.0 1400.0 -876.0 0 5
1.0 3.66 42.8 -82.5 2.0 1.96 0.14 0.05 -2.0 -13.0 16.0 405.0 512.0 -254.0 129.0 -45.3 -49.0 38.0 2.79 -0.64 -0.11 146.0 35.0 -339.0 599.0 -206.0 -335.0 55.824417 9.645819 100.22805 4.0 -0.31 0.14 0.07 4.0 22.0 35.0 -472.0 184.0 281.0 -112.0 26.2 138.0 31.0 -0.06 -0.37 -0.59 -178.0 164.0 182.0 -1150.0 1410.0 -871.0 0 5
1.0 3.58 43.7 -82.3 1.0 1.88 0.08 0.05 -2.0 -6.0 8.0 409.0 511.0 -244.0 125.0 -46.8 -43.7 35.0 2.91 -0.69 -0.15 156.0 44.0 -307.0 613.0 -198.0 -319.0 55.46983 6.8752437 101.08411 4.0 -0.31 0.16 0.05 3.0 23.0 37.0 -468.0 190.0 275.0 -114.0 26.0 137.0 32.0 -0.05 -0.27 -0.72 -182.0 172.0 185.0 -1130.0 1400.0 -863.0 0 5
1.0 3.56 44.4 -82.1 1.0 1.8 0.03 0.08 -6.0 -5.0 7.0 422.0 513.0 -221.0 120.0 -48.1 -38.1 35.0 3.08 -0.72 -0.23 158.0 52.0 -305.0 646.0 -186.0 -268.0 55.94486 11.079297 99.78455 5.0 -0.31 0.16 0.07 5.0 24.0 38.0 -469.0 184.0 285.0 -115.0 25.8 137.0 33.0 0.02 -0.24 -0.79 -185.0 182.0 188.0 -1120.0 1400.0 -855.0 0 5
1.0 3.57 45.1 -81.9 1.0 1.77 0.0 0.13 -4.0 -9.0 0.0 418.0 508.0 -208.0 115.0 -49.1 -31.7 34.0 3.2 -0.77 -0.25 163.0 55.0 -288.0 670.0 -175.0 -241.0 55.21174 11.426833 100.422585 4.0 -0.31 0.14 0.07 5.0 23.0 37.0 -468.0 189.0 292.0 -117.0 25.5 137.0 34.0 0.08 -0.27 -0.82 -188.0 195.0 188.0 -1100.0 1400.0 -843.0 0 5
1.0 3.45 45.6 -81.9 1.0 1.75 -0.03 0.16 1.0 -9.0 -5.0 432.0 510.0 -189.0 110.0 -49.6 -25.8 33.0 3.31 -0.83 -0.3 160.0 59.0 -274.0 696.0 -174.0 -193.0 54.247307 14.1266365 100.61574 4.0 -0.31 0.14 0.07 6.0 22.0 36.0 -473.0 188.0 278.0 -118.0 25.1 137.0 36.0 0.14 -0.29 -0.82 -208.0 207.0 190.0 -1090.0 1400.0 -838.0 0 5
1.0 3.31 46.2 -81.9 3.0 1.78 -0.06 0.15 1.0 -24.0 -8.0 438.0 508.0 -176.0 104.0 -49.9 -18.5 29.0 3.5 -0.83 -0.31 165.0 67.0 -225.0 721.0 -161.0 -121.0 55.465904 14.413128 99.33471 4.0 -0.29 0.14 0.07 6.0 22.0 35.0 -471.0 183.0 284.0 -120.0 24.8 136.0 37.0 0.21 -0.24 -0.84 -215.0 214.0 190.0 -1060.0 1410.0 -831.0 0 5
1.0 2.91 46.9 -82.2 4.0 1.75 -0.06 0.23 2.0 -36.0 -9.0 440.0 503.0 -163.0 98.6 -49.7 -11.4 28.0 3.53 -0.83 -0.21 153.0 70.0 -218.0 725.0 -152.0 -105.0 57.97016 7.1509757 98.55384 4.0 -0.29 0.14 0.07 3.0 23.0 35.0 -476.0 184.0 283.0 -122.0 24.5 135.0 37.0 0.27 -0.18 -0.85 -212.0 221.0 190.0 -1060.0 1410.0 -829.0 0 5
1.0 2.31 47.4 -82.6 2.0 1.65 -0.03 0.33 -1.0 -19.0 -7.0 443.0 507.0 -140.0 93.2 -49.0 -4.49 27.0 3.4 -0.83 -0.11 143.0 78.0 -205.0 740.0 -133.0 -43.0 54.247307 14.1266365 100.61574 4.0 -0.29 0.14 0.08 6.0 22.0 36.0 -474.0 186.0 278.0 -124.0 24.0 135.0 38.0 0.37 -0.21 -0.87 -221.0 223.0 194.0 -1040.0 1400.0 -819.0 0 5
1.0 2.0 47.7 -82.8 3.0 1.48 -0.06 0.21 -18.0 18.0 1.0 449.0 499.0 -132.0 88.5 -48.1 1.82 22.0 3.48 -0.8 -0.15 135.0 96.0 -134.0 741.0 -115.0 14.0 54.852295 12.447054 100.51005 4.0 -0.29 0.14 0.07 5.0 21.0 34.0 -470.0 188.0 283.0 -126.0 23.4 134.0 39.0 0.43 -0.26 -0.89 -220.0 239.0 196.0 -1020.0 1410.0 -804.0 0 5
1.0 2.41 47.8 -82.3 2.0 1.3 -0.08 0.1 -13.0 5.0 12.0 452.0 500.0 -115.0 83.7 -47.0 7.99 19.0 3.58 -0.72 -0.16 127.0 96.0 -99.0 735.0 -110.0 64.0 58.277626 12.540665 97.1116 4.0 -0.31 0.14 0.07 5.0 22.0 33.0 -475.0 193.0 280.0 -127.0 22.5 133.0 42.0 0.48 -0.55 -0.87 -233.0 268.0 204.0 -1020.0 1410.0 -792.0 0 5
1.0 2.49 47.8 -82.1 2.0 1.14 -0.06 0.08 -5.0 -7.0 12.0 450.0 498.0 -112.0 79.0 -45.6 14.2 18.0 3.5 -0.67 -0.07 94.0 106.0 -109.0 726.0 -97.0 110.0 55.824417 9.645819 100.22805 4.0 -0.29 0.16 0.05 4.0 22.0 35.0 -471.0 188.0 291.0 -129.0 21.4 133.0 43.0 0.48 -0.53 -0.84 -261.0 269.0 195.0 -1010.0 1400.0 -784.0 0 5
1.0 2.32 47.5 -82.1 2.0 1.01 -0.08 0.11 9.0 -7.0 11.0 447.0 496.0 -79.0 75.7 -43.9 19.1 17.0 3.15 -0.61 0.08 98.0 114.0 -72.0 726.0 -89.0 140.0 55.824417 9.645819 100.22805 4.0 -0.31 0.16 0.05 4.0 22.0 35.0 -471.0 183.0 277.0 -131.0 21.3 132.0 37.0 0.4 0.18 -0.85 -209.0 227.0 187.0 -979.0 1390.0 -763.0 0 5
1.0 2.14 47.0 -82.1 3.0 0.96 -0.13 0.16 27.0 -3.0 10.0 446.0 496.0 -85.0 72.2 -41.9 24.0 16.0 3.02 -0.56 0.02 96.0 120.0 -47.0 707.0 -69.0 191.0 55.824417 9.645819 100.22805 4.0 -0.31 0.16 0.05 4.0 22.0 35.0 -471.0 183.0 277.0 -133.0 21.3 130.0 36.0 0.5 0.43 -0.77 -189.0 214.0 203.0 -970.0 1380.0 -735.0 0 5
1.0 2.03 46.5 -82.2 5.0 1.0 -0.18 0.18 47.0 -4.0 4.0 446.0 504.0 -84.0 69.2 -40.0 28.2 15.0 2.95 -0.56 -0.03 88.0 116.0 -42.0 690.0 -64.0 250.0 55.824417 9.645819 100.22805 4.0 -0.31 0.16 0.05 4.0 22.0 35.0 -471.0 183.0 277.0 -134.0 21.0 129.0 35.0 0.74 0.45 -0.46 -169.0 207.0 214.0 -946.0 1360.0 -725.0 0 5
1.0 1.9 45.9 -82.2 7.0 1.09 -0.16 0.16 64.0 -1.0 1.0 444.0 497.0 -68.0 66.4 -37.8 32.4 14.0 2.92 -0.53 -0.02 85.0 104.0 -14.0 671.0 -58.0 262.0 55.824417 9.645819 100.22805 4.0 -0.31 0.16 0.05 4.0 22.0 35.0 -471.0 183.0 277.0 -135.0 20.2 127.0 35.0 0.98 0.18 -0.1 -162.0 201.0 219.0 -930.0 1360.0 -715.0 0 5
1.0 1.85 45.5 -82.1 7.0 1.24 -0.13 0.11 72.0 -2.0 6.0 435.0 494.0 -59.0 64.1 -35.7 36.0 13.0 2.79 -0.58 0.11 47.0 114.0 -38.0 641.0 -38.0 313.0 55.824417 9.645819 100.22805 4.0 -0.31 0.16 0.05 4.0 22.0 35.0 -471.0 183.0 277.0 -136.0 19.0 126.0 34.0 1.09 -0.19 0.16 -161.0 199.0 214.0 -929.0 1370.0 -711.0 0 5
1.0 1.69 45.5 -81.9 7.0 1.38 -0.11 0.0 63.0 -13.0 8.0 443.0 495.0 -46.0 62.4 -33.1 39.1 14.0 2.47 -0.59 0.28 52.0 121.0 -35.0 640.0 -32.0 335.0 55.824417 9.645819 100.22805 4.0 -0.31 0.16 0.05 4.0 22.0 35.0 -471.0 183.0 277.0 -136.0 17.5 125.0 35.0 1.04 -0.47 0.28 -174.0 210.0 214.0 -928.0 1370.0 -709.0 0 5
1.0 1.28 45.6 -81.9 4.0 1.49 -0.13 -0.02 37.0 -19.0 14.0 438.0 493.0 -9.0 61.3 -30.7 41.7 15.0 2.39 -0.67 0.38 52.0 131.0 -33.0 612.0 -10.0 369.0 56.574467 9.336072 99.549126 4.0 -0.29 0.16 0.05 4.0 23.0 36.0 -476.0 193.0 276.0 -136.0 16.2 124.0 38.0 0.96 -0.48 0.31 -206.0 224.0 221.0 -927.0 1370.0 -723.0 0 5
1.0 0.75 45.9 -82.0 2.0 1.53 -0.14 -0.02 5.0 -1.0 19.0 442.0 489.0 -2.0 60.3 -28.0 44.2 14.0 2.47 -0.79 0.34 52.0 131.0 -9.0 569.0 2.0 409.0 54.430805 11.796117 101.09789 4.0 -0.31 0.14 0.07 5.0 22.0 36.0 -481.0 192.0 277.0 -136.0 15.0 123.0 40.0 0.88 -0.29 0.3 -213.0 232.0 226.0 -926.0 1380.0 -712.0 0 5
1.0 0.48 46.3 -81.8 4.0 1.51 -0.16 -0.07 -16.0 29.0 22.0 427.0 499.0 11.0 59.7 -25.5 46.5 14.0 2.44 -0.93 0.41 5.0 133.0 -42.0 553.0 11.0 424.0 55.824417 9.645819 100.22805 4.0 -0.31 0.16 0.07 4.0 22.0 35.0 -473.0 191.0 279.0 -137.0 14.1 123.0 38.0 0.83 -0.13 0.28 -195.0 223.0 230.0 -928.0 1380.0 -728.0 0 5
1.0 0.49 46.8 -81.4 8.0 1.38 -0.16 -0.23 -41.0 65.0 30.0 422.0 495.0 32.0 59.5 -22.6 48.3 15.0 2.34 -1.03 0.51 -2.0 143.0 -30.0 515.0 37.0 456.0 57.840622 9.522037 98.25584 4.0 -0.31 0.16 0.05 4.0 23.0 35.0 -473.0 185.0 280.0 -137.0 13.2 121.0 37.0 0.8 -0.06 0.26 -179.0 215.0 235.0 -941.0 1390.0 -736.0 0 5
1.0 0.3 47.8 -81.0 13.0 1.25 -0.18 -0.38 -77.0 95.0 49.0 421.0 486.0 42.0 59.3 -19.4 50.4 15.0 2.38 -1.04 0.43 -11.0 148.0 -16.0 497.0 49.0 481.0 57.840622 9.522037 98.25584 4.0 -0.29 0.16 0.03 4.0 23.0 35.0 -477.0 186.0 279.0 -137.0 12.3 121.0 36.0 0.79 -0.08 0.3 -166.0 204.0 235.0 -932.0 1400.0 -741.0 0 5
1.0 -0.03 49.2 -80.8 22.0 1.2 -0.14 -0.15 -120.0 164.0 65.0 404.0 497.0 67.0 59.1 -16.9 52.3 16.0 2.49 -1.0 0.36 -24.0 150.0 -11.0 447.0 69.0 505.0 57.67535 11.882409 97.8772 4.0 -0.29 0.16 0.03 5.0 23.0 35.0 -469.0 191.0 286.0 -137.0 11.4 120.0 35.0 0.75 -0.18 0.33 -156.0 197.0 237.0 -930.0 1410.0 -751.0 0 5
1.0 -1.42 50.5 -81.0 18.0 1.01 -0.31 -0.77 -54.0 149.0 77.0 405.0 489.0 65.0 58.9 -14.1 54.6 17.0 2.54 -0.95 0.36 -49.0 158.0 -33.0 431.0 86.0 511.0 55.21174 11.426833 100.422585 4.0 -0.29 0.16 0.05 5.0 23.0 37.0 -471.0 186.0 274.0 -137.0 10.4 119.0 35.0 0.71 -0.26 0.39 -160.0 193.0 239.0 -930.0 1420.0 -755.0 0 5
1.0 -3.03 51.6 -81.6 9.0 0.95 -0.47 -0.75 -5.0 -40.0 74.0 396.0 493.0 88.0 58.9 -11.7 56.5 18.0 2.5 -0.88 0.36 -67.0 158.0 -39.0 378.0 99.0 543.0 55.036396 13.686098 99.97646 4.0 -0.31 0.16 0.05 6.0 23.0 37.0 -478.0 186.0 283.0 -137.0 9.55 119.0 35.0 0.64 -0.29 0.41 -153.0 187.0 238.0 -934.0 1420.0 -749.0 0 5
1.0 -3.9 52.7 -82.0 8.0 1.0 -0.34 -0.28 2.0 -71.0 38.0 390.0 500.0 96.0 58.9 -9.3 58.6 18.0 2.54 -0.82 0.31 -74.0 160.0 -26.0 320.0 120.0 574.0 54.430805 11.796117 101.09789 4.0 -0.31 0.14 0.05 5.0 22.0 36.0 -477.0 180.0 282.0 -137.0 8.58 118.0 34.0 0.56 -0.42 0.36 -143.0 183.0 237.0 -933.0 1430.0 -763.0 0 5
1.0 -5.11 53.5 -82.8 6.0 1.12 -0.35 -0.18 -15.0 -54.0 24.0 374.0 505.0 123.0 58.9 -6.77 61.2 18.0 2.68 -0.74 0.21 -81.0 159.0 -7.0 294.0 128.0 595.0 54.430805 11.796117 101.09789 4.0 -0.31 0.16 0.05 5.0 22.0 36.0 -473.0 184.0 279.0 -138.0 7.71 118.0 33.0 0.43 -0.48 0.2 -140.0 177.0 230.0 -932.0 1430.0 -767.0 0 5
1.0 -6.81 53.7 -83.9 6.0 1.12 -0.42 -0.33 -57.0 -11.0 26.0 362.0 501.0 132.0 59.0 -4.36 63.6 20.0 2.73 -0.71 0.23 -101.0 163.0 -17.0 229.0 139.0 603.0 58.360157 11.5052185 97.294945 4.0 -0.31 0.16 0.05 5.0 24.0 36.0 -473.0 185.0 286.0 -138.0 7.01 118.0 33.0 0.26 -0.45 -0.02 -145.0 176.0 225.0 -930.0 1430.0 -751.0 0 5
1.0 -8.2 54.2 -84.7 10.0 1.03 -0.4 -0.44 -97.0 -14.0 30.0 360.0 498.0 135.0 59.2 -1.86 66.2 21.0 2.71 -0.71 0.26 -123.0 166.0 -32.0 201.0 155.0 615.0 63.217316 7.0967474 93.33582 4.0 -0.32 0.16 0.05 3.0 25.0 34.0 -473.0 185.0 290.0 -139.0 6.45 118.0 33.0 0.11 -0.48 -0.18 -138.0 190.0 224.0 -928.0 1440.0 -759.0 0 5
1.0 -9.27 55.0 -85.2 12.0 0.87 -0.31 -0.38 -111.0 -23.0 38.0 352.0 502.0 152.0 59.5 0.42 68.7 22.0 2.68 -0.64 0.26 -135.0 171.0 -17.0 148.0 161.0 641.0 57.67535 11.882409 97.8772 4.0 -0.31 0.16 0.07 5.0 23.0 35.0 -470.0 181.0 293.0 -139.0 5.87 119.0 33.0 0.02 -0.58 -0.28 -142.0 196.0 218.0 -928.0 1430.0 -749.0 0 5
1.0 -10.2 55.8 -85.7 11.0 0.71 -0.24 -0.25 -94.0 -36.0 33.0 345.0 500.0 154.0 60.0 2.51 71.1 24.0 2.65 -0.59 0.33 -154.0 174.0 -13.0 117.0 171.0 631.0 53.405224 14.595349 101.29096 4.0 -0.31 0.16 0.07 6.0 21.0 35.0 -473.0 188.0 279.0 -140.0 5.35 119.0 33.0 -0.06 -0.64 -0.33 -142.0 202.0 209.0 -927.0 1430.0 -744.0 0 5
1.0 -10.8 56.3 -86.0 7.0 0.55 -0.22 -0.03 -67.0 17.0 14.0 336.0 501.0 161.0 60.8 4.83 73.7 26.0 2.52 -0.63 0.44 -175.0 180.0 -25.0 49.0 192.0 644.0 56.419903 11.651106 99.17465 4.0 -0.31 0.16 0.05 5.0 23.0 36.0 -472.0 190.0 286.0 -141.0 4.87 120.0 34.0 -0.14 -0.72 -0.36 -154.0 207.0 207.0 -924.0 1420.0 -726.0 0 5
1.0 -10.9 56.1 -86.0 8.0 0.55 -0.31 -0.13 -68.0 21.0 27.0 323.0 504.0 167.0 61.6 6.78 76.0 25.0 2.39 -0.66 0.54 -179.0 171.0 -20.0 -8.0 209.0 647.0 57.840622 9.522037 98.25584 4.0 -0.31 0.18 0.05 4.0 23.0 35.0 -475.0 189.0 289.0 -142.0 4.28 120.0 35.0 -0.14 -0.83 -0.39 -163.0 214.0 205.0 -921.0 1420.0 -724.0 0 5
1.0 -11.4 56.1 -86.2 9.0 0.53 -0.32 -0.28 -81.0 -5.0 34.0 321.0 501.0 168.0 62.8 8.94 78.6 26.0 2.31 -0.67 0.66 -189.0 175.0 -26.0 -26.0 216.0 646.0 58.51744 9.218799 97.64544 4.0 -0.31 0.18 0.05 4.0 24.0 36.0 -474.0 180.0 279.0 -143.0 3.6 121.0 35.0 -0.11 -0.88 -0.43 -172.0 216.0 201.0 -928.0 1410.0 -701.0 0 5
1.0 -12.2 56.3 -86.5 8.0 0.51 -0.24 -0.28 -70.0 -22.0 34.0 309.0 495.0 178.0 64.1 10.8 80.7 28.0 2.2 -0.72 0.82 -203.0 178.0 -28.0 -82.0 240.0 642.0 55.21174 11.426833 100.422585 4.0 -0.31 0.16 0.05 5.0 23.0 37.0 -478.0 186.0 286.0 -144.0 2.94 122.0 35.0 -0.05 -0.83 -0.49 -181.0 216.0 203.0 -918.0 1400.0 -688.0 0 5
1.0 -12.8 56.4 -86.7 7.0 0.48 -0.16 -0.2 -38.0 -14.0 56.0 311.0 503.0 200.0 65.7 12.6 82.8 28.0 2.02 -0.77 0.98 -207.0 184.0 -36.0 -110.0 249.0 637.0 48.82318 16.491934 105.06979 4.0 -0.31 0.16 0.05 7.0 20.0 37.0 -479.0 180.0 295.0 -145.0 2.28 122.0 36.0 0.03 -0.69 -0.56 -188.0 217.0 203.0 -917.0 1390.0 -679.0 0 5
1.0 -13.4 56.8 -86.9 8.0 0.51 -0.18 -0.13 -19.0 -2.0 75.0 308.0 505.0 191.0 67.5 14.4 84.8 29.0 1.85 -0.79 1.12 -211.0 184.0 -42.0 -162.0 263.0 625.0 54.247307 14.1266365 100.61574 4.0 -0.31 0.16 0.05 6.0 22.0 36.0 -468.0 184.0 280.0 -146.0 1.62 122.0 35.0 0.11 -0.64 -0.67 -179.0 210.0 198.0 -910.0 1380.0 -654.0 0 5
1.0 -14.2 57.4 -87.5 6.0 0.59 -0.24 -0.11 -22.0 -3.0 52.0 300.0 507.0 189.0 69.5 16.2 86.8 30.0 1.67 -0.82 1.23 -217.0 186.0 -52.0 -204.0 284.0 610.0 55.21174 11.426833 100.422585 4.0 -0.31 0.16 0.05 5.0 23.0 37.0 -473.0 185.0 279.0 -147.0 0.82 123.0 34.0 0.16 -0.71 -0.82 -175.0 206.0 203.0 -899.0 1360.0 -627.0 0 5
1.0 -15.0 57.5 -88.0 4.0 0.58 -0.31 -0.15 -26.0 11.0 32.0 292.0 496.0 202.0 71.6 17.8 88.6 30.0 1.49 -0.88 1.31 -221.0 188.0 -55.0 -224.0 301.0 600.0 55.35647 9.155793 100.792816 4.0 -0.31 0.16 0.05 4.0 23.0 37.0 -476.0 185.0 288.0 -149.0 0.0 123.0 35.0 0.21 -0.74 -0.94 -179.0 209.0 204.0 -901.0 1350.0 -606.0 0 5
1.0 -15.4 57.2 -88.2 5.0 0.66 -0.35 -0.31 -22.0 32.0 37.0 286.0 501.0 204.0 73.8 19.4 90.3 30.0 1.3 -0.9 1.35 -223.0 188.0 -61.0 -266.0 315.0 580.0 54.430805 11.796117 101.09789 4.0 -0.31 0.16 0.05 5.0 22.0 36.0 -471.0 188.0 277.0 -150.0 -0.85 123.0 35.0 0.24 -0.69 -1.02 -179.0 209.0 205.0 -875.0 1330.0 -577.0 0 5
1.0 -16.2 57.2 -88.5 5.0 0.8 -0.37 -0.44 -32.0 13.0 41.0 270.0 503.0 221.0 75.7 20.7 91.6 31.0 1.11 -0.9 1.41 -223.0 189.0 -63.0 -281.0 326.0 568.0 53.388683 9.265673 102.71898 4.0 -0.31 0.16 0.07 4.0 22.0 37.0 -473.0 188.0 296.0 -152.0 -1.69 124.0 36.0 0.26 -0.66 -1.07 -181.0 212.0 209.0 -869.0 1310.0 -574.0 0 5
1.0 -17.0 57.4 -88.9 6.0 0.82 -0.35 -0.41 -44.0 -5.0 42.0 255.0 500.0 227.0 77.9 22.1 92.8 31.0 0.85 -0.9 1.46 -225.0 192.0 -83.0 -307.0 333.0 567.0 63.074593 9.450016 93.07304 4.0 -0.31 0.16 0.07 4.0 25.0 34.0 -468.0 178.0 273.0 -154.0 -2.6 124.0 37.0 0.32 -0.74 -1.05 -191.0 218.0 214.0 -854.0 1290.0 -531.0 0 5
1.0 -18.2 57.6 -89.7 7.0 0.77 -0.35 -0.33 -54.0 -8.0 39.0 255.0 498.0 239.0 79.7 23.2 93.6 32.0 0.61 -0.88 1.41 -229.0 188.0 -94.0 -329.0 353.0 532.0 55.465904 14.413128 99.33471 4.0 -0.31 0.16 0.08 6.0 22.0 35.0 -469.0 187.0 286.0 -156.0 -3.77 124.0 38.0 0.45 -0.87 -0.98 -198.0 225.0 221.0 -838.0 1260.0 -497.0 0 5
1.0 -19.2 57.7 -90.4 8.0 0.71 -0.4 -0.3 -66.0 4.0 37.0 240.0 502.0 248.0 81.6 24.4 94.2 32.0 0.32 -0.85 1.41 -235.0 185.0 -104.0 -340.0 368.0 522.0 53.597366 12.189171 101.81354 4.0 -0.31 0.18 0.07 5.0 21.0 35.0 -472.0 191.0 277.0 -157.0 -5.07 125.0 40.0 0.56 -1.01 -0.9 -216.0 230.0 228.0 -832.0 1240.0 -491.0 0 5
1.0 -20.3 57.8 -91.1 9.0 0.63 -0.45 -0.33 -73.0 5.0 43.0 237.0 495.0 240.0 83.4 25.4 94.4 31.0 0.03 -0.85 1.51 -227.0 181.0 -102.0 -344.0 382.0 517.0 51.374035 9.374452 104.68814 4.0 -0.29 0.18 0.05 4.0 21.0 37.0 -473.0 179.0 295.0 -159.0 -6.62 126.0 41.0 0.67 -1.16 -0.85 -226.0 240.0 232.0 -834.0 1230.0 -474.0 0 5
1.0 -21.6 58.0 -92.2 8.0 0.55 -0.45 -0.28 -70.0 -5.0 44.0 225.0 508.0 249.0 85.5 26.6 94.3 31.0 -0.13 -0.9 1.72 -223.0 178.0 -103.0 -354.0 383.0 493.0 56.8 4.7 100.1 4.0 -0.29 0.18 0.05 2.0 23.0 36.0 -469.0 188.0 279.0 -160.0 -8.29 127.0 43.0 0.77 -1.36 -0.89 -237.0 254.0 235.0 -839.0 1200.0 -462.0 1 5
2.0 -22.7 58.2 -93.1 6.0 0.53 -0.43 -0.2 -51.0 0.0 38.0 216.0 499.0 249.0 87.7 27.8 94.2 31.0 -0.24 -0.96 1.99 -224.0 174.0 -109.0 -359.0 395.0 476.0 57.130123 11.289111 98.563126 5.0 -0.29 0.18 0.07 5.0 24.0 37.0 -473.0 187.0 282.0 -162.0 -10.0 128.0 44.0 0.8 -1.3 -0.98 -299.0 240.0 207.0 -840.0 1200.0 -447.0 0 5
2.0 -23.4 58.0 -93.5 7.0 0.53 -0.39 -0.23 -54.0 -3.0 39.0 211.0 498.0 269.0 90.3 29.1 94.0 31.0 -0.32 -1.03 2.23 -226.0 172.0 -119.0 -358.0 406.0 446.0 53.388683 9.265673 102.71898 4.0 -0.29 0.18 0.07 4.0 22.0 37.0 -473.0 187.0 280.0 -164.0 -11.2 128.0 39.0 0.66 -0.43 -1.16 -259.0 194.0 195.0 -831.0 1190.0 -421.0 0 5
2.0 -24.0 57.9 -93.9 8.0 0.53 -0.31 -0.23 -62.0 -7.0 42.0 195.0 490.0 259.0 93.1 30.6 93.6 33.0 -0.48 -1.09 2.46 -238.0 170.0 -135.0 -367.0 418.0 437.0 48.3094 9.795051 107.61689 4.0 -0.29 0.18 0.05 4.0 19.0 36.0 -471.0 191.0 291.0 -166.0 -11.9 126.0 33.0 0.55 0.4 -1.3 -190.0 160.0 203.0 -804.0 1150.0 -395.0 0 5
2.0 -24.7 58.0 -94.3 8.0 0.5 -0.22 -0.21 -68.0 -8.0 45.0 185.0 502.0 266.0 95.9 32.1 93.0 33.0 -0.63 -1.11 2.66 -241.0 168.0 -141.0 -375.0 430.0 413.0 48.094933 11.591465 107.37188 4.0 -0.29 0.19 0.05 5.0 20.0 38.0 -470.0 189.0 284.0 -168.0 -12.8 125.0 31.0 0.61 0.35 -1.21 -143.0 151.0 215.0 -787.0 1140.0 -379.0 0 5
2.0 -25.3 58.2 -94.6 9.0 0.47 -0.16 -0.16 -70.0 -7.0 47.0 183.0 495.0 273.0 98.8 33.6 92.5 34.0 -0.69 -1.12 2.84 -239.0 172.0 -149.0 -383.0 441.0 384.0 54.582348 9.452654 101.498474 4.0 -0.31 0.21 0.07 4.0 22.0 36.0 -477.0 193.0 287.0 -169.0 -14.0 125.0 31.0 0.75 -0.13 -0.89 -153.0 149.0 216.0 -782.0 1120.0 -367.0 0 5
2.0 -25.9 58.5 -94.9 9.0 0.42 -0.13 -0.15 -71.0 -8.0 49.0 181.0 498.0 271.0 102.0 35.2 91.9 34.0 -0.74 -1.16 2.95 -239.0 171.0 -157.0 -381.0 444.0 348.0 46.16605 8.920534 109.92586 5.0 -0.32 0.21 0.1 4.0 20.0 40.0 -470.0 185.0 296.0 -170.0 -15.4 125.0 31.0 0.85 -0.48 -0.49 -158.0 152.0 214.0 -781.0 1120.0 -363.0 0 5
2.0 -26.4 58.8 -95.2 9.0 0.37 -0.13 -0.11 -74.0 -12.0 49.0 174.0 502.0 276.0 106.0 37.2 91.3 35.0 -0.8 -1.17 3.02 -240.0 173.0 -167.0 -390.0 458.0 332.0 47.26546 6.83409 109.2413 4.0 -0.32 0.21 0.13 3.0 20.0 39.0 -476.0 189.0 288.0 -171.0 -16.9 126.0 31.0 0.87 -0.74 -0.21 -165.0 153.0 209.0 -789.0 1120.0 -366.0 0 5
2.0 -27.0 59.0 -95.6 9.0 0.32 -0.13 -0.07 -75.0 -12.0 52.0 170.0 502.0 279.0 109.0 38.9 90.9 35.0 -0.82 -1.17 2.99 -244.0 168.0 -176.0 -401.0 471.0 303.0 41.80812 2.5378203 115.18481 4.0 -0.32 0.21 0.11 1.0 16.0 36.0 -463.0 191.0 278.0 -172.0 -18.2 127.0 32.0 0.79 -0.9 -0.13 -171.0 157.0 208.0 -799.0 1130.0 -366.0 0 5
2.0 -27.5 59.2 -95.9 10.0 0.29 -0.11 -0.05 -76.0 -8.0 57.0 168.0 495.0 273.0 112.0 40.6 90.4 36.0 -0.83 -1.06 2.81 -251.0 172.0 -187.0 -410.0 466.0 268.0 38.920135 2.3717823 118.07946 4.0 -0.32 0.22 0.08 1.0 16.0 39.0 -470.0 195.0 291.0 -173.0 -19.5 127.0 33.0 0.61 -0.85 -0.21 -188.0 160.0 205.0 -808.0 1130.0 -375.0 0 5
2.0 -27.9 59.4 -96.1 10.0 0.26 -0.1 -0.05 -83.0 -8.0 59.0 164.0 498.0 277.0 115.0 42.2 90.1 36.0 -0.75 -1.0 2.69 -246.0 168.0 -186.0 -415.0 478.0 265.0 38.83187 0.0 118.247765 5.0 -0.31 0.24 0.07 0.0 18.0 44.0 -471.0 196.0 276.0 -174.0 -20.2 128.0 31.0 0.31 -0.51 -0.39 -191.0 145.0 189.0 -809.0 1110.0 -359.0 0 5
2.0 -28.2 59.5 -96.3 10.0 0.22 -0.08 -0.03 -84.0 -13.0 56.0 164.0 498.0 291.0 118.0 43.8 90.0 37.0 -0.71 -0.98 2.59 -250.0 169.0 -193.0 -426.0 474.0 226.0 39.644127 0.0 117.4355 5.0 -0.31 0.26 0.07 0.0 18.0 43.0 -469.0 193.0 284.0 -175.0 -20.4 128.0 31.0 -0.06 -0.24 -0.56 -176.0 151.0 195.0 -778.0 1090.0 -331.0 0 5
2.0 -28.4 59.7 -96.4 10.0 0.21 -0.05 0.0 -80.0 -10.0 55.0 157.0 504.0 276.0 121.0 45.3 90.0 37.0 -0.69 -0.98 2.49 -259.0 162.0 -200.0 -435.0 470.0 201.0 40.753754 2.0862026 116.26612 5.0 -0.29 0.24 0.1 1.0 19.0 44.0 -468.0 198.0 291.0 -176.0 -20.2 128.0 32.0 -0.31 -0.39 -0.52 -178.0 166.0 204.0 -775.0 1070.0 -322.0 0 5
2.0 -28.6 59.8 -96.4 10.0 0.18 -0.03 0.0 -77.0 -1.0 53.0 152.0 495.0 287.0 124.0 46.9 90.0 38.0 -0.69 -0.93 2.4 -264.0 157.0 -204.0 -441.0 466.0 193.0 29.517792 -4.1570554 127.253 5.0 -0.27 0.27 0.1 -2.0 14.0 46.0 -468.0 201.0 278.0 -177.0 -20.0 129.0 35.0 -0.42 -0.64 -0.28 -201.0 178.0 212.0 -756.0 1050.0 -304.0 0 5
2.0 -28.7 59.9 -96.4 10.0 0.16 -0.02 -0.02 -78.0 5.0 53.0 152.0 500.0 285.0 126.0 48.3 90.1 39.0 -0.69 -0.88 2.28 -271.0 157.0 -211.0 -454.0 464.0 170.0 20.831562 -3.7611089 135.9014 5.0 -0.26 0.29 0.08 -2.0 11.0 52.0 -473.0 201.0 290.0 -178.0 -19.7 130.0 36.0 -0.45 -0.75 0.07 -215.0 181.0 214.0 -755.0 1040.0 -292.0 0 5
2.0 -28.8 60.0 -96.3 10.0 0.13 0.0 -0.03 -79.0 6.0 54.0 150.0 492.0 284.0 129.0 49.7 90.2 38.0 -0.71 -0.82 2.18 -271.0 153.0 -211.0 -459.0 464.0 165.0 17.938984 7.143243 137.74191 6.0 -0.24 0.31 0.07 4.0 10.0 55.0 -463.0 200.0 275.0 -178.0 -19.4 130.0 35.0 -0.45 -0.82 0.33 -211.0 175.0 211.0 -761.0 1030.0 -287.0 0 5
2.0 -28.9 60.1 -96.2 10.0 0.11 0.0 -0.03 -82.0 1.0 54.0 152.0 497.0 293.0 132.0 51.0 90.3 39.0 -0.71 -0.75 2.12 -274.0 150.0 -214.0 -467.0 461.0 144.0 16.58764 31.717869 121.01295 6.0 -0.18 0.29 0.08 17.0 9.0 51.0 -471.0 203.0 281.0 -178.0 -19.0 131.0 35.0 -0.48 -0.88 0.44 -216.0 170.0 206.0 -762.0 1030.0 -297.0 0 5
2.0 -28.9 60.2 -96.1 10.0 0.08 0.0 0.0 -78.0 -4.0 52.0 154.0 499.0 286.0 134.0 52.3 90.5 39.0 -0.66 -0.69 1.99 -274.0 146.0 -218.0 -480.0 462.0 132.0 3.8203392 45.474377 111.42068 5.0 -0.11 0.31 0.15 23.0 2.0 47.0 -472.0 201.0 280.0 -178.0 -18.6 132.0 35.0 -0.53 -0.79 0.44 -227.0 161.0 208.0 -773.0 1040.0 -307.0 0 5
2.0 -28.9 60.2 -95.9 9.0 0.05 0.02 0.0 -77.0 -4.0 51.0 152.0 507.0 288.0 136.0 53.4 90.7 39.0 -0.59 -0.63 1.84 -277.0 145.0 -225.0 -489.0 455.0 118.0 -23.313175 45.871826 104.78397 5.0 -0.11 0.37 0.2 23.0 -12.0 45.0 -471.0 214.0 278.0 -178.0 -18.2 133.0 36.0 -0.51 -0.71 0.41 -224.0 164.0 213.0 -781.0 1040.0 -301.0 0 5
2.0 -28.8 60.2 -95.6 10.0 0.02 0.02 0.02 -79.0 -5.0 52.0 156.0 498.0 280.0 138.0 54.4 91.0 39.0 -0.55 -0.56 1.66 -277.0 137.0 -221.0 -490.0 459.0 92.0 -41.32738 24.336084 108.33702 5.0 -0.18 0.4 0.16 12.0 -20.0 44.0 -466.0 209.0 268.0 -179.0 -17.9 134.0 36.0 -0.42 -0.72 0.38 -231.0 163.0 218.0 -785.0 1040.0 -302.0 0 5
2.0 -28.6 60.1 -95.3 10.0 -0.02 0.03 0.02 -80.0 -7.0 52.0 149.0 503.0 286.0 140.0 55.4 91.2 38.0 -0.53 -0.51 1.56 -277.0 130.0 -220.0 -496.0 453.0 83.0 -41.822433 0.0 115.2572 5.0 -0.24 0.4 0.05 0.0 -20.0 45.0 -467.0 215.0 268.0 -179.0 -17.8 134.0 36.0 -0.32 -0.67 0.34 -231.0 158.0 217.0 -788.0 1040.0 -307.0 0 5
2.0 -28.4 60.1 -95.0 10.0 -0.03 0.03 0.02 -77.0 -8.0 54.0 155.0 507.0 282.0 142.0 56.1 91.4 38.0 -0.47 -0.42 1.39 -277.0 126.0 -219.0 -504.0 440.0 68.0 -8.655538 -21.783712 133.5875 5.0 -0.31 0.4 -0.08 -10.0 -4.0 45.0 -467.0 213.0 267.0 -179.0 -17.7 135.0 35.0 -0.24 -0.58 0.26 -225.0 147.0 215.0 -785.0 1040.0 -299.0 0 5
2.0 -28.2 60.0 -94.7 9.0 -0.05 0.03 0.03 -73.0 -8.0 53.0 151.0 495.0 283.0 144.0 56.7 91.7 39.0 -0.35 -0.31 1.15 -281.0 128.0 -221.0 -505.0 443.0 67.0 28.169418 -28.169418 116.67653 5.0 -0.34 0.4 -0.2 -13.0 13.0 43.0 -469.0 217.0 274.0 -179.0 -17.7 135.0 34.0 -0.19 -0.48 0.15 -218.0 140.0 213.0 -790.0 1030.0 -296.0 0 5
2.0 -28.0 59.9 -94.4 9.0 -0.03 0.03 0.03 -69.0 -7.0 50.0 152.0 490.0 285.0 145.0 57.1 91.9 39.0 -0.26 -0.21 0.85 -281.0 128.0 -226.0 -509.0 435.0 64.0 55.660522 -30.97205 91.48324 5.0 -0.31 0.4 -0.26 -15.0 26.0 39.0 -465.0 223.0 275.0 -180.0 -17.8 135.0 34.0 -0.14 -0.42 0.08 -214.0 138.0 216.0 -782.0 1020.0 -289.0 0 5
2.0 -27.8 59.9 -94.0 9.0 -0.02 0.03 0.03 -66.0 1.0 51.0 159.0 494.0 278.0 145.0 57.4 91.9 39.0 -0.21 -0.1 0.59 -283.0 129.0 -227.0 -509.0 441.0 51.0 75.197174 -20.45003 77.755875 6.0 -0.21 0.42 -0.36 -11.0 37.0 38.0 -462.0 218.0 272.0 180.0 -17.9 135.0 34.0 -0.1 -0.42 0.05 -209.0 134.0 218.0 -779.0 1010.0 -280.0 0 5
2.0 -27.6 59.8 -93.7 9.0 0.02 0.03 0.03 -66.0 1.0 51.0 156.0 501.0 276.0 145.0 57.5 91.8 39.0 -0.18 0.0 0.31 -282.0 127.0 -226.0 -509.0 434.0 53.0 88.74051 -1.803437 68.30591 6.0 -0.11 0.4 -0.39 -1.0 43.0 35.0 -467.0 212.0 280.0 179.0 -18.1 136.0 34.0 -0.05 -0.45 0.05 -208.0 134.0 221.0 -777.0 1000.0 -292.0 0 5
2.0 -27.5 59.8 -93.5 8.0 0.03 0.02 0.02 -65.0 0.0 52.0 160.0 504.0 278.0 145.0 57.6 91.6 39.0 -0.11 0.06 0.07 -281.0 127.0 -224.0 -514.0 430.0 61.0 90.64933 17.809294 63.169064 5.0 -0.08 0.4 -0.38 9.0 40.0 30.0 -457.0 214.0 278.0 179.0 -18.3 136.0 34.0 -0.02 -0.48 0.07 -207.0 134.0 221.0 -780.0 998.0 -276.0 0 5
2.0 -27.4 59.8 -93.3 9.0 0.06 0.02 0.0 -66.0 0.0 53.0 157.0 499.0 279.0 145.0 57.5 91.4 38.0 -0.06 0.13 -0.15 -278.0 125.0 -220.0 -506.0 438.0 70.0 81.254326 41.777447 58.861046 5.0 -0.1 0.37 -0.31 19.0 34.0 26.0 -462.0 217.0 280.0 178.0 -18.5 136.0 34.0 -0.02 -0.45 0.07 -210.0 130.0 218.0 -782.0 992.0 -281.0 0 5
2.0 -27.4 59.9 -93.2 8.0 0.08 0.0 0.0 -65.0 -2.0 52.0 155.0 502.0 284.0 144.0 57.4 91.3 39.0 0.02 0.18 -0.31 -281.0 124.0 -221.0 -503.0 439.0 64.0 77.4029 61.773434 43.279884 5.0 -0.13 0.32 -0.25 29.0 35.0 21.0 -466.0 217.0 282.0 178.0 -18.7 136.0 33.0 -0.05 -0.42 0.02 -205.0 133.0 216.0 -778.0 991.0 -266.0 0 5
2.0 -27.4 59.9 -93.0 8.0 0.08 0.0 0.0 -65.0 -3.0 52.0 152.0 505.0 273.0 143.0 57.1 91.1 39.0 0.06 0.21 -0.41 -281.0 125.0 -221.0 -502.0 444.0 60.0 86.38021 60.67959 31.628613 6.0 -0.19 0.29 -0.21 33.0 44.0 18.0 -466.0 224.0 284.0 178.0 -18.8 137.0 34.0 -0.1 -0.37 0.0 -209.0 134.0 217.0 -774.0 978.0 -265.0 0 5
2.0 -27.5 59.9 -93.0 9.0 0.11 -0.02 0.0 -66.0 -3.0 52.0 147.0 502.0 281.0 142.0 56.9 90.9 39.0 0.06 0.21 -0.49 -281.0 126.0 -221.0 -505.0 445.0 72.0 105.8115 31.771873 38.78174 6.0 -0.26 0.27 -0.18 19.0 53.0 23.0 -465.0 215.0 291.0 177.0 -18.9 137.0 34.0 -0.13 -0.32 0.03 -206.0 139.0 222.0 -769.0 973.0 -271.0 0 5
2.0 -27.5 60.0 -92.9 9.0 0.11 -0.02 0.0 -68.0 -2.0 53.0 146.0 502.0 281.0 141.0 56.6 90.7 39.0 0.05 0.21 -0.52 -279.0 127.0 -220.0 -490.0 449.0 80.0 110.00322 -2.8296537 46.97733 7.0 -0.31 0.26 -0.16 -2.0 63.0 32.0 -462.0 217.0 289.0 177.0 -18.9 137.0 34.0 -0.14 -0.32 0.08 -206.0 140.0 221.0 -766.0 971.0 -261.0 0 5
2.0 -27.6 60.1 -92.9 9.0 0.11 -0.02 0.0 -69.0 -1.0 52.0 152.0 491.0 278.0 140.0 56.4 90.5 38.0 0.05 0.19 -0.51 -277.0 124.0 -215.0 -495.0 456.0 75.0 108.97924 -2.4975297 48.02433 8.0 -0.29 0.19 -0.15 -2.0 71.0 37.0 -456.0 222.0 287.0 176.0 -18.9 137.0 34.0 -0.18 -0.34 0.15 -205.0 143.0 219.0 -766.0 969.0 -253.0 0 5
2.0 -27.7 60.2 -92.9 9.0 0.13 -0.02 -0.02 -70.0 -1.0 51.0 143.0 499.0 277.0 140.0 56.2 90.4 38.0 0.05 0.18 -0.43 -278.0 123.0 -218.0 -491.0 454.0 87.0 113.914 15.39524 39.98284 9.0 -0.21 0.1 -0.18 13.0 77.0 33.0 -459.0 216.0 300.0 176.0 -18.9 137.0 34.0 -0.19 -0.35 0.2 -208.0 143.0 221.0 -764.0 955.0 -259.0 0 5
2.0 -27.8 60.2 -92.9 9.0 0.11 -0.02 -0.02 -71.0 -3.0 50.0 152.0 501.0 281.0 139.0 56.0 90.4 38.0 0.06 0.13 -0.31 -277.0 123.0 -217.0 -495.0 457.0 80.0 109.149475 19.700357 43.07595 8.0 -0.1 0.11 -0.28 15.0 68.0 32.0 -463.0 208.0 297.0 176.0 -18.9 137.0 35.0 -0.21 -0.37 0.26 -216.0 150.0 223.0 -770.0 959.0 -250.0 0 5
2.0 -27.9 60.3 -92.8 9.0 0.1 -0.03 -0.02 -69.0 -3.0 50.0 148.0 497.0 284.0 139.0 55.8 90.4 38.0 0.06 0.1 -0.23 -276.0 126.0 -216.0 -492.0 454.0 81.0 99.5038 17.751604 54.10545 7.0 0.0 0.19 -0.44 12.0 57.0 35.0 -463.0 216.0 288.0 176.0 -18.8 137.0 36.0 -0.22 -0.31 0.31 -225.0 152.0 223.0 -769.0 955.0 -250.0 0 5
2.0 -28.0 60.3 -92.8 9.0 0.1 -0.05 -0.02 -69.0 -2.0 48.0 151.0 503.0 281.0 138.0 55.7 90.5 38.0 0.05 0.05 -0.11 -277.0 127.0 -216.0 -493.0 458.0 82.0 75.7579 31.76632 71.541374 7.0 0.08 0.22 -0.69 20.0 44.0 42.0 -470.0 215.0 294.0 176.0 -18.8 137.0 36.0 -0.24 -0.22 0.34 -227.0 150.0 220.0 -769.0 962.0 -249.0 0 5
2.0 -28.0 60.2 -92.7 9.0 0.1 -0.05 -0.02 -69.0 -1.0 51.0 139.0 500.0 281.0 138.0 55.7 90.7 38.0 0.03 0.0 -0.03 -277.0 127.0 -215.0 -486.0 451.0 85.0 63.16705 47.89788 72.415825 7.0 0.11 0.19 -0.9 32.0 41.0 46.0 -475.0 203.0 293.0 176.0 -18.7 137.0 35.0 -0.26 -0.13 0.36 -225.0 146.0 219.0 -765.0 961.0 -250.0 0 5
2.0 -28.1 60.3 -92.7 8.0 0.1 -0.03 -0.02 -66.0 -1.0 48.0 144.0 508.0 276.0 138.0 55.7 90.9 38.0 0.02 -0.05 0.03 -277.0 127.0 -215.0 -492.0 459.0 105.0 60.022125 57.25427 67.18823 9.0 0.14 0.13 -1.0 47.0 49.0 54.0 -479.0 199.0 300.0 176.0 -18.5 137.0 35.0 -0.31 -0.03 0.36 -223.0 142.0 218.0 -761.0 965.0 -250.0 0 5
2.0 -28.0 60.2 -92.5 8.0 0.1 -0.03 -0.03 -63.0 -2.0 49.0 144.0 500.0 282.0 139.0 55.7 91.2 38.0 0.0 -0.1 0.1 -275.0 129.0 -211.0 -487.0 449.0 92.0 65.21897 56.583385 62.697433 10.0 0.18 0.1 -1.0 53.0 60.0 58.0 -476.0 184.0 298.0 176.0 -18.3 136.0 35.0 -0.35 0.02 0.38 -220.0 140.0 221.0 -765.0 969.0 -250.0 0 5
2.0 -28.0 60.1 -92.4 8.0 0.11 -0.03 -0.02 -64.0 -3.0 47.0 142.0 503.0 281.0 139.0 55.8 91.5 38.0 -0.02 -0.11 0.15 -276.0 128.0 -213.0 -495.0 450.0 77.0 65.98782 59.871746 58.679626 10.0 0.21 0.11 -0.98 57.0 62.0 56.0 -481.0 171.0 294.0 177.0 -18.2 136.0 35.0 -0.35 -0.03 0.43 -217.0 139.0 223.0 -756.0 973.0 -250.0 0 5
2.0 -27.8 60.0 -92.2 8.0 0.13 -0.03 -0.02 -65.0 -3.0 48.0 142.0 501.0 289.0 139.0 55.9 91.7 38.0 -0.02 -0.11 0.18 -277.0 126.0 -211.0 -500.0 453.0 92.0 59.9 62.4 62.4 10.0 0.19 0.14 -0.95 58.0 56.0 58.0 -486.0 162.0 298.0 177.0 -17.9 136.0 35.0 -0.35 -0.14 0.49 -216.0 139.0 222.0 -758.0 982.0 -250.0 1 5
3.0 0.75 5.82 -88.4 5.0 0.02 0.0 0.02 -14.0 3.0 49.0 54.0 643.0 -310.0 0.0 0.0 0.0 31.0 3.89 -1.65 0.13 -222.0 186.0 -88.0 161.0 325.0 538.0 52.63808 -52.23222 -78.40897 29.0 0.35 0.14 -0.46 -142.0 143.0 -201.0 -528.0 293.0 111.0 152.0 -4.14 90.1 31.0 -0.1 0.06 -0.02 193.0 167.0 -163.0 -32.0 686.0 777.0 0 5
3.0 0.75 5.82 -88.4 5.0 0.03 0.0 0.0 -15.0 3.0 47.0 51.0 635.0 -296.0 0.0 0.0 0.0 26.0 3.92 -1.77 0.64 -195.0 162.0 28.0 121.0 333.0 544.0 52.782482 -52.375275 -78.1596 29.0 0.35 0.14 -0.48 -142.0 143.0 -200.0 -528.0 285.0 102.0 151.0 -4.02 90.1 31.0 -0.08 -0.02 -0.02 197.0 170.0 -163.0 -25.0 681.0 775.0 0 5
3.0 0.76 5.85 -88.4 4.0 0.05 0.0 0.0 -13.0 1.0 42.0 55.0 635.0 -307.0 0.0 0.0 0.0 33.0 4.34 -1.85 1.08 -254.0 193.0 8.0 24.0 366.0 554.0 53.523754 -52.70217 -77.22802 29.0 0.35 0.14 -0.46 -142.0 144.0 -197.0 -527.0 288.0 110.0 151.0 -3.99 90.0 31.0 -0.02 0.02 -0.03 195.0 171.0 -162.0 -30.0 680.0 777.0 0 5
3.0 0.76 5.84 -88.3 5.0 0.03 0.0 0.0 -13.0 2.0 44.0 52.0 632.0 -298.0 0.0 0.0 0.0 43.0 4.19 -1.78 1.33 -346.0 229.0 -94.0 -25.0 394.0 541.0 54.4 -53.1 -76.1 29.0 0.35 0.16 -0.44 -144.0 147.0 -196.0 -527.0 284.0 103.0 151.0 -4.02 90.0 31.0 0.03 0.03 -0.05 192.0 167.0 -160.0 -29.0 690.0 781.0 1 5
4.0 142.0 -36.2 132.0 19.0 0.37 0.02 -0.56 43.0 29.0 -174.0 197.0 577.0 -343.0 -96.4 -38.7 69.5 40.0 1.57 -1.11 0.62 62.0 -151.0 -360.0 392.0 -78.0 -522.0 21.580833 -17.661903 -129.01315 19.0 -0.11 0.14 0.41 -32.0 39.0 -175.0 -628.0 107.0 5.0 0.0 0.0 0.0 32.0 1.35 -0.37 0.13 -258.0 -166.0 -51.0 -45.0 -697.0 -115.0 0 5
4.0 141.0 -36.3 132.0 19.0 0.37 0.02 -0.56 43.0 34.0 -177.0 194.0 579.0 -351.0 -95.0 -39.7 67.3 39.0 1.72 -1.14 0.69 74.0 -149.0 -346.0 408.0 -74.0 -513.0 22.939878 -16.716188 -128.51642 18.0 -0.26 0.21 0.56 -30.0 41.0 -173.0 -622.0 113.0 0.0 0.0 0.0 0.0 32.0 1.32 -0.21 0.21 -259.0 -175.0 -51.0 -34.0 -700.0 -126.0 0 5
4.0 140.0 -36.5 133.0 19.0 0.34 0.0 -0.56 45.0 33.0 -176.0 191.0 582.0 -348.0 -93.1 -40.8 64.3 38.0 1.96 -1.19 0.72 78.0 -147.0 -329.0 439.0 -71.0 -489.0 25.169462 -17.412767 -126.255936 19.0 -0.35 0.31 0.71 -32.0 46.0 -176.0 -616.0 121.0 4.0 0.0 0.0 0.0 33.0 1.22 -0.1 0.34 -260.0 -183.0 -55.0 -23.0 -699.0 -125.0 0 5
4.0 140.0 -36.6 133.0 19.0 0.32 0.0 -0.56 46.0 33.0 -177.0 192.0 585.0 -333.0 -90.9 -41.9 61.1 38.0 2.18 -1.22 0.74 74.0 -144.0 -333.0 457.0 -70.0 -496.0 27.050028 -19.760363 -123.281944 19.0 -0.48 0.43 0.84 -36.0 49.0 -173.0 -618.0 136.0 13.0 0.0 0.0 0.0 34.0 1.11 0.19 0.44 -267.0 -185.0 -63.0 -26.0 -707.0 -137.0 0 5
4.0 139.0 -36.7 133.0 19.0 0.31 0.0 -0.54 46.0 31.0 -175.0 194.0 589.0 -329.0 -88.4 -42.9 57.4 37.0 2.3 -1.27 0.71 74.0 -139.0 -332.0 491.0 -62.0 -477.0 27.572924 -19.98422 -122.71332 18.0 -0.59 0.58 0.9 -35.0 48.0 -166.0 -615.0 136.0 13.0 0.0 0.0 0.0 33.0 1.04 0.66 0.48 -262.0 -180.0 -74.0 -25.0 -714.0 -131.0 0 5
4.0 139.0 -36.8 134.0 18.0 0.31 0.02 -0.52 47.0 32.0 -172.0 193.0 597.0 -328.0 -85.8 -43.8 53.6 36.0 2.39 -1.3 0.66 80.0 -137.0 -312.0 531.0 -60.0 -458.0 28.884226 -22.745667 -119.89905 17.0 -0.71 0.72 0.97 -38.0 48.0 -157.0 -612.0 153.0 43.0 0.0 0.0 0.0 32.0 1.01 1.04 0.44 -254.0 -173.0 -75.0 -26.0 -715.0 -134.0 0 5
4.0 138.0 -36.9 134.0 19.0 0.29 0.03 -0.51 46.0 37.0 -172.0 191.0 592.0 -321.0 -83.0 -44.6 49.5 35.0 2.6 -1.35 0.67 84.0 -139.0 -302.0 544.0 -49.0 -439.0 30.83098 -26.40225 -115.90284 17.0 -0.79 0.83 1.07 -43.0 50.0 -151.0 -605.0 162.0 45.0 0.0 0.0 0.0 32.0 0.95 1.25 0.48 -250.0 -168.0 -75.0 -31.0 -700.0 -139.0 0 5
4.0 137.0 -37.0 134.0 18.0 0.29 0.03 -0.52 45.0 41.0 -169.0 189.0 593.0 -301.0 -79.6 -45.2 44.7 34.0 2.83 -1.38 0.67 87.0 -138.0 -286.0 580.0 -37.0 -407.0 34.876423 -30.366508 -109.9447 17.0 -0.87 0.95 1.15 -49.0 56.0 -146.0 -595.0 187.0 47.0 0.0 0.0 0.0 33.0 0.8 1.49 0.56 -265.0 -161.0 -79.0 -44.0 -698.0 -118.0 0 5
4.0 137.0 -37.1 135.0 18.0 0.27 0.03 -0.52 43.0 38.0 -165.0 190.0 593.0 -298.0 -75.8 -45.7 39.2 33.0 3.0 -1.43 0.61 82.0 -130.0 -279.0 621.0 -33.0 -372.0 38.321182 -33.17054 -105.19984 17.0 -0.93 1.06 1.23 -54.0 62.0 -144.0 -590.0 187.0 52.0 0.0 0.0 0.0 31.0 0.71 1.85 0.64 -258.0 -144.0 -79.0 -63.0 -685.0 -120.0 0 5
4.0 136.0 -37.1 135.0 18.0 0.24 0.05 -0.54 43.0 37.0 -164.0 189.0 600.0 -302.0 -72.1 -45.8 33.7 32.0 3.12 -1.48 0.48 76.0 -124.0 -274.0 634.0 -10.0 -347.0 43.64144 -36.427242 -98.50657 17.0 -1.0 1.17 1.31 -59.0 70.0 -138.0 -578.0 225.0 47.0 0.0 0.0 0.0 29.0 0.66 2.09 0.71 -250.0 -120.0 -78.0 -88.0 -673.0 -110.0 0 5
4.0 136.0 -37.2 135.0 17.0 0.24 0.03 -0.52 42.0 35.0 -160.0 192.0 597.0 -295.0 -68.2 -45.8 27.6 28.0 3.29 -1.56 0.38 76.0 -125.0 -231.0 666.0 -9.0 -305.0 49.656162 -39.62358 -91.07902 17.0 -1.06 1.3 1.39 -64.0 79.0 -131.0 -565.0 234.0 63.0 0.0 0.0 0.0 29.0 0.59 2.26 0.75 -251.0 -99.0 -73.0 -112.0 -670.0 -92.0 0 5
4.0 135.0 -37.2 135.0 17.0 0.22 0.03 -0.51 43.0 35.0 -159.0 193.0 601.0 -297.0 -65.2 -45.5 22.5 26.0 3.5 -1.65 0.38 68.0 -123.0 -218.0 699.0 13.0 -249.0 52.983795 -41.218994 -86.98832 17.0 -1.09 1.41 1.33 -65.0 82.0 -124.0 -552.0 266.0 82.0 0.0 0.0 0.0 28.0 0.51 2.36 0.85 -255.0 -83.0 -70.0 -137.0 -656.0 -74.0 0 5
4.0 135.0 -37.2 136.0 17.0 0.22 0.05 -0.49 42.0 36.0 -157.0 189.0 607.0 -283.0 -62.1 -45.0 16.7 25.0 3.68 -1.75 0.43 60.0 -114.0 -212.0 710.0 26.0 -231.0 51.95804 -40.426575 -88.48043 16.0 -1.09 1.45 1.12 -61.0 77.0 -120.0 -540.0 274.0 73.0 0.0 0.0 0.0 29.0 0.43 2.49 0.97 -264.0 -65.0 -68.0 -160.0 -640.0 -61.0 0 5
4.0 134.0 -37.3 136.0 17.0 0.21 0.06 -0.46 44.0 33.0 -154.0 190.0 600.0 -289.0 -59.7 -44.3 11.4 24.0 3.82 -1.86 0.49 56.0 -105.0 -201.0 735.0 43.0 -152.0 51.255512 -38.89824 -90.212975 16.0 -1.08 1.48 0.82 -58.0 75.0 -120.0 -526.0 310.0 88.0 0.0 0.0 0.0 28.0 0.42 2.63 1.05 -258.0 -49.0 -66.0 -201.0 -607.0 -22.0 0 5
4.0 134.0 -37.3 136.0 16.0 0.21 0.08 -0.43 43.0 33.0 -152.0 188.0 609.0 -276.0 -57.4 -43.6 6.05 21.0 3.93 -1.99 0.59 55.0 -97.0 -175.0 739.0 64.0 -137.0 54.64866 -37.2325 -88.36148 16.0 -1.04 1.56 0.64 -56.0 80.0 -119.0 -504.0 337.0 111.0 0.0 0.0 0.0 28.0 0.43 2.84 1.12 -261.0 -31.0 -63.0 -222.0 -588.0 -12.0 0 5
4.0 133.0 -37.4 136.0 17.0 0.19 0.1 -0.38 41.0 39.0 -156.0 190.0 602.0 -276.0 -54.8 -42.7 0.97 18.0 4.08 -2.12 0.84 60.0 -100.0 -132.0 740.0 90.0 -64.0 63.71285 -37.842552 -79.50059 16.0 -1.11 1.65 0.69 -59.0 95.0 -114.0 -489.0 346.0 104.0 0.0 0.0 0.0 26.0 0.45 2.95 1.18 -250.0 -15.0 -59.0 -263.0 -557.0 37.0 0 5
4.0 133.0 -37.4 136.0 17.0 0.16 0.1 -0.36 42.0 44.0 -158.0 188.0 612.0 -272.0 -50.7 -41.2 -5.56 16.0 4.19 -2.23 1.08 39.0 -80.0 -129.0 734.0 121.0 -6.0 69.784225 -39.842186 -72.18198 17.0 -1.17 1.75 0.71 -64.0 106.0 -109.0 -459.0 380.0 126.0 0.0 0.0 0.0 27.0 0.39 3.0 1.3 -260.0 -7.0 -55.0 -277.0 -536.0 46.0 0 5
4.0 133.0 -37.4 136.0 17.0 0.14 0.11 -0.36 42.0 44.0 -160.0 187.0 612.0 -277.0 -46.7 -39.9 -11.4 15.0 4.05 -2.31 1.12 10.0 -49.0 -140.0 723.0 143.0 37.0 74.87867 -37.530678 -68.697784 18.0 -1.16 1.81 0.56 -63.0 117.0 -109.0 -446.0 389.0 118.0 0.0 0.0 0.0 28.0 0.31 3.05 1.44 -266.0 3.0 -54.0 -332.0 -483.0 103.0 0 5
4.0 133.0 -37.4 136.0 17.0 0.11 0.11 -0.33 38.0 40.0 -155.0 188.0 611.0 -269.0 -42.0 -38.1 -18.1 11.0 3.92 -2.44 1.08 10.0 -30.0 -102.0 705.0 180.0 88.0 81.72134 -32.589306 -64.94358 17.0 -1.09 1.88 0.31 -54.0 123.0 -102.0 -418.0 420.0 128.0 0.0 0.0 0.0 29.0 0.26 3.18 1.56 -275.0 13.0 -49.0 -354.0 -457.0 127.0 0 5
4.0 133.0 -37.4 136.0 17.0 0.06 0.13 -0.31 43.0 42.0 -157.0 183.0 613.0 -273.0 -37.8 -36.2 -24.4 4.0 3.97 -2.57 1.07 -9.0 -13.0 -32.0 690.0 196.0 131.0 91.550064 -29.738014 -56.370773 18.0 -1.04 1.96 0.11 -51.0 138.0 -93.0 -399.0 431.0 138.0 0.0 0.0 0.0 28.0 0.31 3.44 1.61 -271.0 33.0 -46.0 -406.0 -401.0 177.0 0 5
4.0 132.0 -37.3 136.0 17.0 0.03 0.13 -0.31 47.0 41.0 -157.0 190.0 613.0 -262.0 -33.8 -33.5 -30.3 4.0 3.9 -2.55 0.92 -27.0 -2.0 -29.0 653.0 238.0 178.0 98.66045 -28.939234 -49.151024 19.0 -1.04 1.99 0.03 -52.0 152.0 -86.0 -358.0 459.0 144.0 0.0 0.0 0.0 28.0 0.31 3.5 1.61 -269.0 52.0 -39.0 -426.0 -361.0 214.0 0 5
4.0 132.0 -37.2 136.0 17.0 -0.02 0.11 -0.3 48.0 45.0 -155.0 188.0 608.0 -266.0 -30.5 -30.2 -35.9 4.0 3.79 -2.49 0.64 -34.0 7.0 -17.0 601.0 264.0 236.0 106.135544 -25.284845 -43.194714 20.0 -1.04 1.93 0.15 -49.0 171.0 -82.0 -344.0 469.0 158.0 0.0 0.0 0.0 29.0 0.21 3.47 1.62 -278.0 70.0 -33.0 -480.0 -289.0 277.0 0 5
4.0 132.0 -37.1 136.0 17.0 -0.03 0.11 -0.28 46.0 44.0 -156.0 179.0 618.0 -266.0 -27.8 -26.4 -41.1 6.0 3.84 -2.44 0.26 -40.0 22.0 29.0 579.0 283.0 264.0 110.79551 -16.571829 -42.78345 20.0 -1.0 1.8 0.33 -33.0 179.0 -83.0 -307.0 484.0 159.0 0.0 0.0 0.0 31.0 0.06 3.56 1.64 -289.0 89.0 -28.0 -496.0 -259.0 298.0 0 5
4.0 132.0 -37.0 136.0 17.0 -0.05 0.13 -0.25 50.0 40.0 -155.0 189.0 616.0 -265.0 -26.1 -22.5 -46.2 10.0 4.01 -2.38 -0.07 -78.0 38.0 47.0 519.0 309.0 322.0 113.42577 -7.354362 -42.94509 21.0 -0.93 1.7 0.44 -15.0 185.0 -85.0 -293.0 488.0 155.0 0.0 0.0 0.0 32.0 0.11 4.05 1.48 -286.0 119.0 -32.0 -545.0 -176.0 363.0 0 5
4.0 132.0 -36.9 136.0 17.0 -0.05 0.13 -0.21 55.0 38.0 -152.0 185.0 609.0 -265.0 -26.0 -19.4 -50.3 13.0 3.95 -2.2 -0.41 -123.0 32.0 14.0 491.0 312.0 361.0 114.682465 -5.821131 -41.944004 21.0 -0.88 1.69 0.46 -12.0 188.0 -84.0 -260.0 507.0 172.0 0.0 0.0 0.0 29.0 0.26 4.14 1.26 -242.0 156.0 -20.0 -565.0 -142.0 395.0 0 5
4.0 132.0 -36.8 136.0 17.0 -0.02 0.14 -0.18 57.0 39.0 -150.0 188.0 618.0 -262.0 -26.4 -16.3 -54.2 13.0 3.76 -2.04 -0.56 -128.0 19.0 25.0 421.0 321.0 402.0 115.02405 -6.8764234 -41.418568 21.0 -0.82 1.59 0.41 -14.0 186.0 -82.0 -248.0 521.0 160.0 0.0 0.0 0.0 33.0 0.14 3.95 1.18 -275.0 170.0 -5.0 -602.0 -65.0 445.0 0 5
4.0 133.0 -36.8 135.0 17.0 0.02 0.14 -0.16 60.0 39.0 -147.0 182.0 599.0 -252.0 -26.9 -13.3 -57.9 14.0 3.85 -1.96 -0.39 -125.0 -7.0 60.0 347.0 332.0 447.0 118.87407 -4.4435377 -37.919518 21.0 -0.75 1.45 0.48 -9.0 188.0 -75.0 -218.0 537.0 173.0 0.0 0.0 0.0 36.0 -0.13 3.85 1.18 -301.0 179.0 2.0 -616.0 -24.0 471.0 0 5
4.0 133.0 -36.9 135.0 16.0 0.05 0.14 -0.15 61.0 43.0 -143.0 184.0 616.0 -269.0 -27.2 -9.97 -61.8 16.0 3.95 -1.89 -0.1 -147.0 -13.0 61.0 310.0 339.0 480.0 120.76134 1.9175961 -36.262905 21.0 -0.69 1.32 0.57 4.0 195.0 -74.0 -201.0 534.0 163.0 0.0 0.0 0.0 38.0 -0.35 4.06 1.15 -307.0 206.0 10.0 -656.0 58.0 545.0 0 5
4.0 133.0 -37.0 135.0 16.0 0.1 0.14 -0.15 59.0 42.0 -143.0 189.0 610.0 -260.0 -27.4 -6.79 -65.4 20.0 3.95 -1.81 0.15 -187.0 -4.0 63.0 233.0 346.0 499.0 120.19099 6.0063252 -36.34975 22.0 -0.58 1.22 0.56 13.0 202.0 -77.0 -179.0 559.0 148.0 0.0 0.0 0.0 37.0 -0.27 4.32 1.02 -267.0 242.0 14.0 -659.0 105.0 577.0 0 5
4.0 133.0 -37.1 135.0 16.0 0.14 0.14 -0.15 57.0 40.0 -145.0 187.0 605.0 -277.0 -27.7 -3.63 -69.1 24.0 3.77 -1.75 0.3 -226.0 13.0 51.0 196.0 347.0 522.0 121.120865 8.434375 -34.867764 22.0 -0.47 1.11 0.46 18.0 200.0 -73.0 -169.0 551.0 146.0 0.0 0.0 0.0 36.0 -0.14 4.14 0.95 -237.0 260.0 32.0 -686.0 190.0 624.0 0 5
4.0 133.0 -37.2 136.0 17.0 0.16 0.14 -0.11 73.0 48.0 -144.0 184.0 611.0 -272.0 -27.9 -0.76 -72.4 26.0 3.63 -1.72 0.46 -242.0 -7.0 88.0 119.0 358.0 536.0 126.06449 9.408638 -29.462767 24.0 -0.39 1.0 0.36 22.0 223.0 -68.0 -143.0 558.0 147.0 0.0 0.0 0.0 37.0 -0.14 3.93 1.02 -253.0 257.0 46.0 -687.0 231.0 650.0 0 5
4.0 132.0 -37.6 136.0 16.0 0.27 0.14 -0.16 60.0 39.0 -138.0 189.0 607.0 -258.0 -28.1 2.01 -75.7 29.0 3.66 -1.69 0.64 -268.0 -2.0 91.0 81.0 366.0 533.0 125.14247 14.915937 -28.022715 25.0 -0.31 0.95 0.3 36.0 230.0 -67.0 -133.0 567.0 143.0 0.0 0.0 0.0 39.0 -0.21 3.93 1.23 -271.0 258.0 54.0 -709.0 311.0 706.0 0 5
4.0 132.0 -37.8 136.0 16.0 0.29 0.14 -0.11 57.0 45.0 -141.0 190.0 610.0 -273.0 -28.3 4.82 -79.0 32.0 3.55 -1.62 0.77 -308.0 13.0 71.0 7.0 378.0 545.0 121.38596 19.412283 -29.561401 26.0 -0.26 0.87 0.25 49.0 238.0 -74.0 -122.0 575.0 139.0 0.0 0.0 0.0 38.0 -0.27 3.89 1.46 -246.0 275.0 66.0 -709.0 348.0 740.0 0 5
4.0 132.0 -38.1 136.0 16.0 0.27 0.16 -0.13 41.0 39.0 -147.0 195.0 604.0 -270.0 -28.6 7.48 -82.2 34.0 3.23 -1.49 0.74 -323.0 25.0 71.0 -59.0 375.0 546.0 117.016556 23.427544 -31.875727 26.0 -0.21 0.79 0.11 60.0 238.0 -81.0 -102.0 579.0 136.0 0.0 0.0 0.0 38.0 -0.14 3.98 1.64 -224.0 294.0 59.0 -708.0 435.0 784.0 0 5
4.0 132.0 -38.2 137.0 17.0 0.22 0.16 -0.15 40.0 43.0 -152.0 198.0 607.0 -269.0 -29.1 9.76 -85.1 33.0 2.97 -1.43 0.66 -318.0 25.0 65.0 -96.0 383.0 551.0 114.6908 25.887663 -32.777027 26.0 -0.14 0.72 0.1 66.0 235.0 -83.0 -100.0 587.0 142.0 0.0 0.0 0.0 37.0 0.16 3.77 1.79 -180.0 305.0 63.0 -709.0 462.0 800.0 0 5
4.0 132.0 -38.3 137.0 16.0 0.18 0.16 -0.13 39.0 42.0 -150.0 193.0 616.0 -255.0 -29.6 11.8 -87.7 32.0 2.79 -1.35 0.64 -309.0 10.0 51.0 -150.0 381.0 539.0 117.47802 25.509407 -29.607056 26.0 -0.1 0.66 0.11 64.0 234.0 -74.0 -84.0 586.0 150.0 0.0 0.0 0.0 40.0 0.19 3.87 1.95 -224.0 317.0 63.0 -698.0 526.0 822.0 0 5
4.0 132.0 -38.4 137.0 17.0 0.14 0.16 -0.11 42.0 47.0 -151.0 199.0 610.0 -256.0 -30.3 13.9 -90.7 31.0 2.65 -1.28 0.67 -299.0 -8.0 48.0 -174.0 381.0 533.0 119.51794 23.073612 -29.092323 26.0 -0.08 0.61 0.13 59.0 240.0 -74.0 -85.0 588.0 133.0 0.0 0.0 0.0 41.0 0.19 3.85 2.1 -204.0 345.0 64.0 -689.0 567.0 831.0 0 5
4.0 132.0 -38.4 137.0 16.0 0.13 0.14 -0.15 36.0 42.0 -148.0 194.0 611.0 -261.0 -30.8 15.7 -93.1 30.0 2.54 -1.24 0.74 -295.0 -16.0 43.0 -224.0 379.0 531.0 118.311935 24.758364 -29.198168 26.0 -0.06 0.59 0.18 63.0 238.0 -74.0 -72.0 590.0 139.0 0.0 0.0 0.0 43.0 0.19 3.74 2.25 -190.0 372.0 67.0 -669.0 630.0 849.0 0 5
4.0 132.0 -38.4 137.0 16.0 0.08 0.16 -0.13 34.0 40.0 -146.0 194.0 617.0 -275.0 -31.5 17.6 -95.7 30.0 2.34 -1.17 0.75 -296.0 -12.0 33.0 -271.0 387.0 531.0 116.315544 27.174774 -29.60621 26.0 -0.08 0.58 0.2 69.0 236.0 -75.0 -63.0 598.0 124.0 0.0 0.0 0.0 44.0 0.35 3.42 2.26 -146.0 403.0 55.0 -659.0 649.0 848.0 0 5
4.0 133.0 -38.4 137.0 16.0 0.02 0.19 -0.11 33.0 41.0 -151.0 200.0 611.0 -278.0 -32.2 19.2 -98.1 31.0 2.17 -1.09 0.66 -302.0 -3.0 23.0 -288.0 392.0 527.0 114.431946 29.481453 -29.886587 26.0 -0.06 0.58 0.15 75.0 235.0 -76.0 -55.0 598.0 127.0 0.0 0.0 0.0 52.0 0.5 3.55 2.08 -163.0 479.0 39.0 -634.0 696.0 852.0 0 5
4.0 133.0 -38.4 136.0 16.0 -0.05 0.21 -0.1 33.0 39.0 -152.0 193.0 609.0 -273.0 -33.1 20.6 -100.0 30.0 2.02 -1.01 0.51 -298.0 -2.0 17.0 -328.0 381.0 497.0 115.24066 29.73788 -28.53035 26.0 -0.08 0.58 0.1 76.0 237.0 -73.0 -47.0 596.0 117.0 0.0 0.0 0.0 52.0 0.63 3.77 1.76 -128.0 492.0 36.0 -619.0 715.0 845.0 0 5
4.0 133.0 -38.3 136.0 16.0 -0.11 0.21 -0.07 36.0 36.0 -150.0 198.0 612.0 -272.0 -34.1 22.0 -102.0 30.0 1.88 -0.93 0.38 -298.0 -17.0 12.0 -346.0 379.0 498.0 113.84565 30.479506 -29.673857 27.0 -0.08 0.58 0.08 78.0 236.0 -76.0 -37.0 604.0 122.0 0.0 0.0 0.0 50.0 0.67 3.47 1.43 -165.0 455.0 39.0 -589.0 747.0 838.0 0 5
4.0 134.0 -38.1 136.0 17.0 -0.14 0.21 -0.03 40.0 34.0 -154.0 202.0 604.0 -281.0 -35.3 23.3 -104.0 31.0 1.78 -0.85 0.26 -298.0 -25.0 5.0 -378.0 370.0 490.0 113.788536 31.671335 -28.489864 27.0 -0.06 0.55 0.05 82.0 239.0 -74.0 -28.0 594.0 122.0 0.0 0.0 0.0 48.0 0.51 3.32 1.33 -177.0 439.0 38.0 -570.0 766.0 833.0 0 5
4.0 134.0 -38.0 135.0 16.0 -0.18 0.21 0.02 41.0 33.0 -152.0 199.0 611.0 -278.0 -36.5 24.4 -106.0 30.0 1.67 -0.75 0.15 -296.0 -24.0 -9.0 -406.0 366.0 483.0 112.09748 32.96822 -29.448992 27.0 -0.08 0.51 0.0 87.0 242.0 -78.0 -23.0 604.0 118.0 0.0 0.0 0.0 50.0 0.27 3.56 1.3 -128.0 468.0 35.0 -538.0 801.0 839.0 0 5
4.0 135.0 -37.8 135.0 17.0 -0.21 0.22 0.05 41.0 30.0 -154.0 198.0 615.0 -293.0 -38.0 25.6 -107.0 29.0 1.53 -0.63 -0.03 -286.0 -30.0 -4.0 -422.0 363.0 470.0 113.089195 31.541868 -29.605528 28.0 -0.1 0.47 0.02 84.0 245.0 -79.0 -15.0 604.0 130.0 0.0 0.0 0.0 50.0 0.21 3.89 1.23 -36.0 485.0 37.0 -506.0 804.0 835.0 0 5
4.0 135.0 -37.6 134.0 17.0 -0.22 0.22 0.08 41.0 34.0 -155.0 200.0 608.0 -292.0 -39.5 26.7 -109.0 29.0 1.4 -0.51 -0.16 -281.0 -38.0 -5.0 -432.0 358.0 476.0 114.778076 31.142233 -27.670488 28.0 -0.08 0.47 0.1 83.0 247.0 -74.0 -14.0 601.0 131.0 0.0 0.0 0.0 48.0 0.34 3.37 1.2 -62.0 465.0 38.0 -461.0 822.0 832.0 0 5
4.0 136.0 -37.4 134.0 17.0 -0.22 0.22 0.1 52.0 40.0 -157.0 196.0 600.0 -305.0 -41.1 27.7 -110.0 29.0 1.3 -0.43 -0.26 -285.0 -41.0 -10.0 -446.0 352.0 471.0 113.47373 31.46781 -29.15138 28.0 -0.05 0.43 0.16 84.0 246.0 -78.0 -8.0 601.0 109.0 0.0 0.0 0.0 46.0 0.37 3.0 1.25 -77.0 444.0 36.0 -452.0 828.0 824.0 0 5
4.0 137.0 -37.2 134.0 18.0 -0.21 0.22 0.08 53.0 42.0 -159.0 195.0 597.0 -288.0 -42.7 28.6 -111.0 30.0 1.17 -0.39 -0.33 -289.0 -47.0 -20.0 -457.0 341.0 469.0 112.58416 32.603363 -29.164837 28.0 -0.02 0.37 0.08 88.0 248.0 -79.0 0.0 603.0 120.0 0.0 0.0 0.0 47.0 0.29 3.02 1.3 -63.0 454.0 31.0 -430.0 828.0 810.0 0 5
4.0 137.0 -37.0 133.0 18.0 -0.19 0.21 0.08 56.0 47.0 -157.0 196.0 590.0 -310.0 -44.3 29.4 -112.0 30.0 1.0 -0.35 -0.33 -289.0 -49.0 -30.0 -468.0 336.0 471.0 114.11297 32.419365 -27.17695 29.0 0.05 0.32 -0.03 89.0 254.0 -75.0 2.0 609.0 111.0 0.0 0.0 0.0 49.0 0.37 3.32 1.31 18.0 477.0 30.0 -388.0 835.0 791.0 0 5
4.0 138.0 -36.9 133.0 18.0 -0.16 0.19 0.08 59.0 48.0 -157.0 199.0 595.0 -297.0 -45.7 30.0 -113.0 30.0 0.87 -0.35 -0.25 -283.0 -56.0 -26.0 -465.0 322.0 480.0 116.07113 30.338049 -26.717722 29.0 0.08 0.31 -0.05 86.0 264.0 -76.0 11.0 603.0 106.0 0.0 0.0 0.0 49.0 0.63 3.13 1.33 37.0 480.0 29.0 -365.0 835.0 783.0 0 5
4.0 138.0 -36.8 133.0 18.0 -0.11 0.18 0.07 63.0 54.0 -155.0 202.0 587.0 -317.0 -46.8 30.6 -113.0 29.0 0.75 -0.35 -0.07 -274.0 -71.0 -21.0 -477.0 311.0 473.0 117.18991 29.05254 -26.540152 30.0 0.13 0.31 -0.07 83.0 267.0 -76.0 11.0 606.0 109.0 0.0 0.0 0.0 47.0 0.88 2.79 1.38 -15.0 463.0 19.0 -324.0 831.0 763.0 0 5
4.0 138.0 -36.8 133.0 18.0 -0.06 0.18 0.05 61.0 51.0 -152.0 196.0 592.0 -322.0 -47.6 31.0 -114.0 29.0 0.64 -0.35 0.2 -276.0 -64.0 -21.0 -484.0 314.0 482.0 117.88127 28.916042 -25.704939 30.0 0.21 0.24 -0.13 83.0 269.0 -74.0 9.0 604.0 115.0 0.0 0.0 0.0 46.0 0.82 2.71 1.41 -25.0 450.0 3.0 -302.0 828.0 747.0 0 5
4.0 138.0 -36.8 133.0 17.0 -0.03 0.16 0.03 56.0 42.0 -151.0 197.0 588.0 -332.0 -48.1 31.3 -114.0 29.0 0.5 -0.39 0.39 -277.0 -57.0 -18.0 -479.0 315.0 480.0 119.242805 28.916775 -23.704699 30.0 0.29 0.14 -0.25 85.0 277.0 -70.0 11.0 607.0 121.0 0.0 0.0 0.0 45.0 0.67 2.65 1.36 -29.0 436.0 -15.0 -267.0 820.0 723.0 0 5
4.0 139.0 -36.8 133.0 16.0 -0.02 0.14 0.05 49.0 35.0 -148.0 204.0 584.0 -333.0 -48.2 31.4 -114.0 28.0 0.32 -0.42 0.54 -273.0 -47.0 -11.0 -472.0 313.0 485.0 121.43287 27.69988 -21.850979 31.0 0.34 0.03 -0.28 82.0 281.0 -65.0 13.0 610.0 111.0 0.0 0.0 0.0 44.0 0.55 2.71 1.23 -12.0 430.0 -29.0 -247.0 826.0 714.0 0 5
4.0 139.0 -36.7 133.0 17.0 -0.02 0.13 0.07 45.0 31.0 -153.0 195.0 593.0 -332.0 -48.1 31.4 -114.0 27.0 0.14 -0.39 0.67 -264.0 -49.0 6.0 -482.0 312.0 487.0 122.03617 25.872257 -23.096264 30.0 0.39 0.0 -0.33 76.0 279.0 -68.0 8.0 603.0 108.0 0.0 0.0 0.0 44.0 0.55 2.91 1.03 15.0 431.0 -37.0 -203.0 811.0 693.0 0 5
4.0 140.0 -36.6 132.0 17.0 -0.02 0.13 0.13 45.0 26.0 -156.0 196.0 585.0 -339.0 -47.8 31.2 -114.0 28.0 -0.05 -0.35 0.79 -268.0 -41.0 -1.0 -472.0 304.0 493.0 120.25243 26.932022 -24.494179 30.0 0.48 -0.05 -0.39 79.0 277.0 -72.0 1.0 602.0 119.0 0.0 0.0 0.0 44.0 0.63 3.1 0.77 28.0 433.0 -37.0 -185.0 801.0 681.0 0 5
4.0 140.0 -36.4 132.0 17.0 -0.02 0.11 0.16 47.0 26.0 -160.0 201.0 580.0 -344.0 -47.3 30.9 -113.0 28.0 -0.35 -0.34 0.75 -278.0 -21.0 -6.0 -457.0 312.0 503.0 119.23496 28.779696 -23.879679 30.0 0.56 -0.16 -0.39 84.0 275.0 -70.0 -6.0 599.0 131.0 0.0 0.0 0.0 44.0 0.63 3.15 0.54 45.0 429.0 -29.0 -132.0 780.0 663.0 0 5
4.0 141.0 -36.3 132.0 18.0 -0.03 0.1 0.21 48.0 25.0 -164.0 191.0 577.0 -351.0 -46.8 30.1 -112.0 28.0 -0.69 -0.32 0.64 -275.0 -16.0 12.0 -449.0 308.0 500.0 119.83165 28.849405 -22.892395 30.0 0.55 -0.31 -0.38 84.0 275.0 -67.0 -7.0 602.0 120.0 0.0 0.0 0.0 43.0 0.45 2.91 0.39 42.0 416.0 -26.0 -121.0 776.0 663.0 0 5
4.0 141.0 -36.1 132.0 18.0 -0.03 0.1 0.23 49.0 20.0 -170.0 184.0 575.0 -349.0 -46.1 29.3 -111.0 27.0 -0.95 -0.27 0.64 -265.0 -26.0 32.0 -430.0 301.0 519.0 119.923744 28.295294 -23.423576 30.0 0.58 -0.37 -0.36 83.0 277.0 -69.0 -14.0 598.0 128.0 0.0 0.0 0.0 41.0 0.26 2.78 0.31 49.0 399.0 -29.0 -80.0 751.0 653.0 0 5
4.0 142.0 -36.0 132.0 18.0 -0.03 0.11 0.28 48.0 14.0 -172.0 194.0 578.0 -357.0 -45.2 28.1 -109.0 28.0 -1.24 -0.21 0.75 -269.0 -32.0 34.0 -416.0 305.0 526.0 119.3 27.6 -25.1 30.0 0.64 -0.35 -0.36 80.0 273.0 -73.0 -24.0 594.0 132.0 0.0 0.0 0.0 40.0 0.18 2.76 0.31 67.0 387.0 -23.0 -65.0 729.0 648.0 1 5
5.0 143.0 -35.9 132.0 19.0 -0.03 0.16 0.33 48.0 7.0 -177.0 190.0 572.0 -363.0 -44.1 26.9 -108.0 28.0 -1.54 -0.18 0.85 -274.0 -21.0 41.0 -379.0 314.0 556.0 117.2666 28.309578 -27.220373 29.0 0.71 -0.35 -0.38 80.0 264.0 -77.0 -40.0 595.0 134.0 0.0 0.0 0.0 40.0 0.22 2.79 0.44 83.0 380.0 -16.0 -12.0 711.0 622.0 0 5
5.0 144.0 -35.9 132.0 19.0 -0.05 0.21 0.44 57.0 12.0 -180.0 192.0 565.0 -376.0 -42.8 25.2 -105.0 28.0 -1.83 -0.13 0.87 -273.0 -25.0 51.0 -344.0 309.0 554.0 116.07222 28.57816 -28.57816 29.0 0.75 -0.43 -0.39 79.0 257.0 -79.0 -41.0 591.0 139.0 0.0 0.0 0.0 41.0 0.34 2.7 0.74 117.0 386.0 -10.0 5.0 700.0 612.0 0 5
5.0 145.0 -35.8 132.0 20.0 -0.06 0.22 0.46 61.0 28.0 -182.0 195.0 559.0 -389.0 -41.6 23.4 -103.0 28.0 -2.07 -0.08 0.89 -256.0 -42.0 75.0 -313.0 302.0 568.0 116.37634 28.939035 -27.795767 28.0 0.8 -0.53 -0.38 78.0 251.0 -75.0 -59.0 590.0 148.0 0.0 0.0 0.0 42.0 0.5 2.14 1.12 114.0 392.0 0.0 40.0 677.0 589.0 0 5
5.0 146.0 -35.8 131.0 20.0 -0.08 0.21 0.41 57.0 31.0 -185.0 196.0 558.0 -375.0 -40.1 21.3 -100.0 28.0 -2.22 0.0 0.98 -256.0 -44.0 77.0 -260.0 311.0 580.0 116.61356 28.01691 -28.405964 27.0 0.83 -0.58 -0.31 74.0 246.0 -75.0 -69.0 582.0 140.0 0.0 0.0 0.0 42.0 0.59 1.57 1.46 106.0 396.0 -1.0 39.0 662.0 566.0 0 5
5.0 146.0 -35.7 131.0 20.0 -0.08 0.16 0.38 52.0 23.0 -189.0 193.0 553.0 -398.0 -39.0 19.3 -97.7 28.0 -2.39 0.08 0.95 -259.0 -33.0 72.0 -203.0 301.0 591.0 115.840256 26.258707 -31.034588 27.0 0.9 -0.59 -0.28 68.0 240.0 -80.0 -86.0 580.0 144.0 0.0 0.0 0.0 42.0 0.74 1.24 1.71 92.0 401.0 -18.0 71.0 647.0 534.0 0 5
5.0 147.0 -35.5 131.0 21.0 -0.1 0.14 0.41 49.0 13.0 -195.0 195.0 548.0 -408.0 -37.9 17.0 -94.7 28.0 -2.52 0.14 0.82 -258.0 -24.0 82.0 -175.0 297.0 594.0 114.25322 25.18287 -33.8671 26.0 0.95 -0.64 -0.26 63.0 230.0 -84.0 -94.0 582.0 154.0 0.0 0.0 0.0 42.0 0.96 1.08 1.79 78.0 403.0 -23.0 73.0 640.0 519.0 0 5
5.0 149.0 -35.3 131.0 21.0 -0.11 0.14 0.44 56.0 37.0 -190.0 190.0 545.0 -424.0 -37.2 14.9 -92.0 28.0 -2.59 0.21 0.71 -254.0 -22.0 100.0 -100.0 307.0 615.0 113.63728 25.190752 -34.600872 25.0 1.0 -0.75 -0.26 61.0 222.0 -83.0 -116.0 577.0 135.0 0.0 0.0 0.0 41.0 1.12 0.96 1.77 60.0 399.0 -22.0 83.0 634.0 487.0 0 5
5.0 149.0 -35.1 131.0 20.0 -0.13 0.13 0.36 49.0 33.0 -190.0 184.0 538.0 -423.0 -36.6 12.4 -88.8 29.0 -2.67 0.32 0.62 -261.0 -27.0 115.0 -65.0 289.0 622.0 112.72038 26.603483 -34.610455 24.0 1.03 -0.9 -0.26 62.0 213.0 -80.0 -134.0 575.0 136.0 0.0 0.0 0.0 40.0 1.19 0.82 1.71 34.0 391.0 -26.0 89.0 619.0 471.0 0 5
5.0 150.0 -34.8 130.0 21.0 -0.14 0.11 0.33 47.0 22.0 -200.0 183.0 533.0 -436.0 -36.2 9.92 -85.5 29.0 -2.83 0.4 0.56 -258.0 -16.0 114.0 -1.0 283.0 607.0 110.40407 27.836021 -36.436333 24.0 1.06 -1.0 -0.26 64.0 208.0 -83.0 -157.0 568.0 137.0 0.0 0.0 0.0 40.0 1.2 0.8 1.62 20.0 391.0 -31.0 99.0 621.0 454.0 0 5
5.0 151.0 -34.5 130.0 22.0 -0.16 0.11 0.36 51.0 19.0 -210.0 182.0 532.0 -441.0 -36.1 7.45 -82.3 28.0 -2.97 0.45 0.44 -246.0 -15.0 120.0 75.0 258.0 610.0 108.76073 26.481361 -39.39835 23.0 1.08 -1.03 -0.33 60.0 203.0 -88.0 -180.0 554.0 132.0 0.0 0.0 0.0 41.0 1.2 0.87 1.51 6.0 399.0 -34.0 112.0 616.0 435.0 0 5
5.0 152.0 -34.1 130.0 24.0 -0.19 0.11 0.43 65.0 43.0 -217.0 178.0 523.0 -450.0 -36.1 5.05 -79.0 28.0 -3.03 0.47 0.41 -238.0 -18.0 136.0 106.0 252.0 609.0 107.560165 22.52892 -43.280945 22.0 1.08 -1.09 -0.39 49.0 193.0 -92.0 -186.0 555.0 135.0 0.0 0.0 0.0 43.0 1.22 0.92 1.36 30.0 416.0 -32.0 112.0 604.0 418.0 0 5
5.0 153.0 -33.8 130.0 25.0 -0.19 0.1 0.33 72.0 64.0 -223.0 175.0 521.0 -453.0 -36.2 2.26 -75.3 29.0 -3.07 0.47 0.48 -241.0 -15.0 142.0 187.0 235.0 594.0 107.41301 17.287245 -46.046654 21.0 1.06 -1.2 -0.49 36.0 184.0 -93.0 -221.0 540.0 132.0 0.0 0.0 0.0 44.0 1.24 0.72 1.16 35.0 427.0 -31.0 112.0 603.0 418.0 0 5
5.0 153.0 -33.4 130.0 24.0 -0.16 0.08 0.16 67.0 60.0 -219.0 172.0 522.0 -454.0 -36.5 -0.23 -72.0 28.0 -3.16 0.47 0.52 -241.0 -10.0 132.0 223.0 234.0 573.0 108.92873 15.73418 -45.093086 21.0 1.06 -1.3 -0.57 32.0 181.0 -89.0 -233.0 538.0 137.0 0.0 0.0 0.0 44.0 1.25 0.47 1.0 33.0 433.0 -33.0 118.0 601.0 409.0 0 5
5.0 153.0 -33.0 130.0 22.0 -0.16 0.06 0.08 54.0 39.0 -210.0 171.0 519.0 -463.0 -36.8 -2.96 -68.4 27.0 -3.29 0.47 0.54 -227.0 -8.0 129.0 303.0 203.0 559.0 111.325 13.131084 -43.553757 21.0 1.04 -1.33 -0.67 27.0 185.0 -87.0 -266.0 525.0 134.0 0.0 0.0 0.0 46.0 1.27 0.4 0.79 24.0 444.0 -36.0 115.0 603.0 408.0 0 5
5.0 154.0 -32.6 130.0 23.0 -0.13 0.1 0.13 63.0 17.0 -215.0 165.0 517.0 -471.0 -37.3 -5.87 -64.4 26.0 -3.36 0.43 0.59 -212.0 -10.0 139.0 336.0 193.0 558.0 109.51694 10.000147 -46.327457 21.0 1.01 -1.28 -0.75 21.0 187.0 -94.0 -271.0 514.0 134.0 0.0 0.0 0.0 45.0 1.33 0.39 0.54 24.0 443.0 -37.0 107.0 616.0 415.0 0 5
5.0 155.0 -32.5 129.0 23.0 -0.11 0.14 0.18 72.0 33.0 -216.0 156.0 510.0 -466.0 -37.9 -8.65 -60.7 24.0 -3.37 0.4 0.66 -200.0 -14.0 130.0 419.0 169.0 501.0 109.540695 7.294291 -46.883255 21.0 0.98 -1.25 -0.8 15.0 183.0 -93.0 -305.0 504.0 136.0 0.0 0.0 0.0 44.0 1.36 0.24 0.38 19.0 431.0 -30.0 98.0 614.0 412.0 0 5
5.0 155.0 -32.4 129.0 24.0 -0.08 0.14 0.13 74.0 43.0 -217.0 165.0 509.0 -481.0 -38.7 -11.5 -56.6 23.0 -3.39 0.4 0.69 -191.0 -10.0 126.0 476.0 151.0 474.0 108.43466 2.483396 -48.570335 21.0 0.98 -1.28 -0.77 5.0 178.0 -94.0 -320.0 490.0 133.0 0.0 0.0 0.0 43.0 1.3 0.0 0.34 1.0 422.0 -25.0 91.0 622.0 430.0 0 5
5.0 156.0 -32.4 129.0 24.0 -0.03 0.1 0.07 64.0 36.0 -222.0 162.0 506.0 -487.0 -39.8 -14.6 -52.1 21.0 -3.52 0.42 0.67 -180.0 -12.0 101.0 508.0 145.0 443.0 108.64005 -2.0228956 -48.389923 20.0 0.96 -1.36 -0.72 -4.0 175.0 -92.0 -347.0 480.0 130.0 0.0 0.0 0.0 44.0 1.22 -0.13 0.41 4.0 429.0 -25.0 84.0 630.0 430.0 0 5
5.0 156.0 -32.2 129.0 24.0 -0.03 0.06 0.05 58.0 33.0 -228.0 158.0 509.0 -481.0 -40.9 -17.2 -48.1 18.0 -3.58 0.4 0.71 -150.0 -21.0 99.0 575.0 113.0 387.0 106.1799 -4.5975857 -50.651154 20.0 0.96 -1.35 -0.71 -9.0 171.0 -95.0 -353.0 463.0 135.0 0.0 0.0 0.0 46.0 1.24 -0.22 0.44 12.0 448.0 -22.0 65.0 641.0 445.0 0 5
5.0 157.0 -31.9 129.0 24.0 -0.03 0.08 0.07 56.0 35.0 -229.0 154.0 503.0 -470.0 -42.3 -20.2 -43.2 15.0 -3.6 0.4 0.75 -118.0 -30.0 78.0 600.0 113.0 366.0 103.362564 -8.757128 -52.84295 20.0 0.93 -1.28 -0.72 -17.0 167.0 -98.0 -378.0 447.0 138.0 0.0 0.0 0.0 48.0 1.32 -0.42 0.43 29.0 470.0 -25.0 58.0 652.0 450.0 0 5
5.0 157.0 -31.7 129.0 24.0 -0.02 0.1 0.07 56.0 40.0 -225.0 153.0 503.0 -486.0 -43.8 -22.7 -38.8 13.0 -3.63 0.42 0.79 -95.0 -32.0 78.0 651.0 83.0 301.0 103.864 -13.704189 -51.0548 19.0 0.92 -1.22 -0.69 -26.0 164.0 -93.0 -388.0 444.0 136.0 0.0 0.0 0.0 49.0 1.36 -0.8 0.41 24.0 482.0 -25.0 28.0 670.0 461.0 0 5
5.0 157.0 -31.4 129.0 24.0 0.0 0.11 0.05 58.0 39.0 -225.0 150.0 507.0 -494.0 -45.6 -25.2 -34.1 11.0 -3.61 0.4 0.82 -88.0 -35.0 41.0 692.0 68.0 234.0 101.40131 -17.279984 -52.3257 19.0 0.9 -1.19 -0.64 -32.0 158.0 -93.0 -414.0 416.0 129.0 0.0 0.0 0.0 50.0 1.33 -1.17 0.38 -3.0 491.0 -30.0 14.0 678.0 472.0 0 5
5.0 158.0 -31.3 129.0 24.0 0.03 0.13 0.05 61.0 37.0 -229.0 151.0 507.0 -488.0 -47.7 -27.7 -28.8 9.0 -3.68 0.4 0.82 -59.0 -54.0 34.0 703.0 65.0 215.0 99.67754 -19.008055 -53.411896 19.0 0.88 -1.2 -0.59 -36.0 160.0 -97.0 -425.0 409.0 125.0 0.0 0.0 0.0 51.0 1.27 -1.36 0.28 -5.0 501.0 -30.0 -13.0 711.0 484.0 0 5
5.0 158.0 -31.2 129.0 25.0 0.08 0.11 0.03 64.0 44.0 -233.0 152.0 492.0 -489.0 -49.5 -29.5 -24.0 7.0 -3.6 0.42 0.92 -43.0 -54.0 23.0 736.0 44.0 136.0 96.62273 -22.78177 -54.8738 19.0 0.82 -1.17 -0.57 -42.0 153.0 -97.0 -438.0 390.0 126.0 0.0 0.0 0.0 53.0 1.28 -1.46 0.13 -12.0 514.0 -35.0 -35.0 717.0 491.0 0 5
5.0 158.0 -31.1 129.0 25.0 0.11 0.11 -0.02 56.0 43.0 -238.0 154.0 497.0 -511.0 -50.9 -30.7 -19.4 6.0 -3.55 0.42 0.98 -27.0 -53.0 4.0 744.0 30.0 101.0 97.710464 -22.287556 -53.97322 18.0 0.75 -1.12 -0.54 -40.0 150.0 -93.0 -454.0 376.0 120.0 0.0 0.0 0.0 54.0 1.32 -1.4 -0.08 11.0 530.0 -35.0 -76.0 740.0 518.0 0 5
5.0 158.0 -30.8 129.0 26.0 0.08 0.1 0.0 52.0 48.0 -240.0 149.0 490.0 -502.0 -52.2 -31.6 -14.3 7.0 -3.53 0.43 0.97 -19.0 -58.0 -29.0 762.0 3.0 32.0 102.33513 -15.327591 -52.08437 18.0 0.77 -0.98 -0.51 -27.0 151.0 -88.0 -466.0 360.0 129.0 0.0 0.0 0.0 54.0 1.33 -1.7 -0.2 36.0 532.0 -30.0 -97.0 743.0 538.0 0 5
5.0 159.0 -30.5 129.0 26.0 0.06 0.1 0.02 54.0 55.0 -244.0 156.0 492.0 -489.0 -53.8 -32.3 -9.57 9.0 -3.55 0.45 0.94 1.0 -66.0 -55.0 763.0 -3.0 1.0 103.66532 -7.5858097 -52.75655 19.0 0.72 -0.83 -0.44 -14.0 159.0 -93.0 -482.0 360.0 113.0 0.0 0.0 0.0 53.0 1.27 -2.09 -0.2 18.0 520.0 -24.0 -142.0 766.0 564.0 0 5
5.0 159.0 -30.1 129.0 25.0 0.08 0.11 -0.03 54.0 53.0 -235.0 149.0 495.0 -504.0 -56.1 -33.4 -4.35 11.0 -3.48 0.43 0.95 24.0 -75.0 -77.0 763.0 -19.0 -73.0 101.1094 -6.523188 -55.496925 19.0 0.64 -0.74 -0.34 -12.0 156.0 -97.0 -487.0 343.0 106.0 0.0 0.0 0.0 53.0 1.25 -2.22 -0.13 21.0 521.0 -21.0 -170.0 776.0 570.0 0 5
5.0 159.0 -29.9 129.0 25.0 0.06 0.13 -0.07 56.0 49.0 -230.0 148.0 489.0 -503.0 -58.4 -34.5 0.71 13.0 -3.34 0.42 1.0 41.0 -85.0 -90.0 758.0 -25.0 -108.0 95.74707 -12.209393 -59.747604 18.0 0.58 -0.66 -0.28 -21.0 141.0 -97.0 -491.0 327.0 104.0 0.0 0.0 0.0 54.0 1.35 -2.34 -0.08 33.0 527.0 -19.0 -222.0 797.0 591.0 0 5
5.0 159.0 -29.7 129.0 25.0 0.06 0.11 -0.1 60.0 46.0 -233.0 150.0 488.0 -509.0 -61.1 -35.4 6.0 15.0 -3.2 0.4 1.05 42.0 -88.0 -115.0 746.0 -39.0 -166.0 92.98659 -17.049377 -61.060616 17.0 0.53 -0.59 -0.15 -29.0 137.0 -98.0 -498.0 330.0 121.0 0.0 0.0 0.0 55.0 1.43 -2.46 -0.03 27.0 534.0 -17.0 -250.0 795.0 598.0 0 5
5.0 158.0 -29.5 129.0 25.0 0.06 0.08 -0.11 60.0 49.0 -236.0 143.0 485.0 -509.0 -64.2 -36.1 11.7 19.0 -3.15 0.4 1.05 41.0 -90.0 -154.0 722.0 -56.0 -217.0 85.05907 -22.689415 -66.873085 19.0 0.51 -0.48 -0.08 -41.0 137.0 -113.0 -515.0 319.0 98.0 0.0 0.0 0.0 55.0 1.45 -2.73 0.02 16.0 535.0 -19.0 -306.0 801.0 616.0 0 5
5.0 158.0 -29.3 129.0 25.0 0.08 0.06 -0.15 58.0 51.0 -236.0 142.0 489.0 -507.0 -67.6 -36.6 17.5 21.0 -3.1 0.37 1.08 50.0 -99.0 -172.0 711.0 -70.0 -251.0 77.94455 -27.026556 -71.98811 19.0 0.48 -0.37 -0.11 -49.0 129.0 -121.0 -519.0 314.0 104.0 0.0 0.0 0.0 55.0 1.38 -2.89 0.03 24.0 542.0 -19.0 -339.0 809.0 617.0 0 5
5.0 158.0 -29.2 129.0 25.0 0.11 0.08 -0.16 60.0 44.0 -235.0 143.0 494.0 -513.0 -71.6 -36.8 23.7 26.0 -2.97 0.34 1.21 64.0 -121.0 -214.0 681.0 -69.0 -305.0 79.43676 -26.853756 -70.56966 17.0 0.42 -0.31 -0.13 -45.0 121.0 -110.0 -523.0 309.0 82.0 0.0 0.0 0.0 55.0 1.36 -3.05 0.03 -5.0 542.0 -24.0 -362.0 802.0 627.0 0 5
5.0 158.0 -29.1 129.0 25.0 0.13 0.1 -0.15 58.0 39.0 -233.0 143.0 486.0 -512.0 -75.3 -36.9 29.9 29.0 -2.81 0.31 1.36 68.0 -132.0 -238.0 665.0 -90.0 -324.0 80.4425 -19.010883 -73.0558 17.0 0.42 -0.26 -0.03 -32.0 122.0 -113.0 -522.0 304.0 85.0 0.0 0.0 0.0 56.0 1.33 -2.95 -0.08 -12.0 547.0 -27.0 -413.0 792.0 630.0 0 5
5.0 158.0 -29.1 129.0 26.0 0.11 0.08 -0.13 56.0 54.0 -242.0 141.0 490.0 -508.0 -77.5 -36.7 34.8 31.0 -2.65 0.29 1.44 68.0 -140.0 -256.0 632.0 -101.0 -363.0 77.7766 -15.391732 -76.95233 17.0 0.39 -0.26 0.05 -26.0 119.0 -118.0 -520.0 305.0 78.0 0.0 0.0 0.0 56.0 1.28 -2.92 -0.2 -4.0 550.0 -24.0 -452.0 781.0 646.0 0 5
5.0 158.0 -28.8 129.0 26.0 0.11 0.06 -0.18 54.0 53.0 -241.0 144.0 490.0 -512.0 -79.1 -36.4 39.1 31.0 -2.46 0.27 1.44 68.0 -141.0 -264.0 599.0 -113.0 -407.0 71.97696 -24.372423 -79.260414 17.0 0.35 -0.26 0.13 -41.0 112.0 -121.0 -526.0 298.0 84.0 0.0 0.0 0.0 55.0 1.25 -3.2 -0.28 -1.0 540.0 -25.0 -497.0 770.0 648.0 0 5
5.0 158.0 -28.6 129.0 25.0 0.11 0.06 -0.2 51.0 46.0 -239.0 145.0 493.0 -504.0 -80.8 -36.1 43.2 33.0 -2.25 0.22 1.28 66.0 -142.0 -285.0 577.0 -123.0 -415.0 61.82925 -29.72989 -86.39196 16.0 0.26 -0.26 0.05 -47.0 93.0 -122.0 -533.0 296.0 82.0 0.0 0.0 0.0 54.0 1.22 -3.26 -0.34 -33.0 530.0 -24.0 -528.0 749.0 656.0 0 5
5.0 158.0 -28.4 129.0 25.0 0.11 0.08 -0.2 54.0 45.0 -238.0 140.0 496.0 -513.0 -82.5 -35.6 47.0 34.0 -2.04 0.21 1.07 70.0 -144.0 -292.0 542.0 -128.0 -447.0 64.643814 -27.796833 -84.74385 15.0 0.16 -0.26 -0.03 -41.0 90.0 -112.0 -526.0 296.0 69.0 0.0 0.0 0.0 53.0 1.19 -3.28 -0.39 -22.0 521.0 -22.0 -571.0 720.0 661.0 0 5
5.0 158.0 -28.2 129.0 26.0 0.11 0.08 -0.2 60.0 51.0 -242.0 139.0 492.0 -493.0 -84.3 -35.0 50.4 35.0 -1.85 0.19 0.84 69.0 -146.0 -303.0 514.0 -127.0 -462.0 64.78377 -21.81868 -87.485146 16.0 0.14 -0.22 0.02 -33.0 92.0 -117.0 -531.0 289.0 67.0 0.0 0.0 0.0 52.0 1.24 -3.24 -0.44 -48.0 503.0 -18.0 -598.0 697.0 673.0 0 5
5.0 158.0 -28.1 129.0 26.0 0.13 0.06 -0.25 62.0 53.0 -240.0 137.0 494.0 -496.0 -86.2 -34.4 53.6 36.0 -1.7 0.14 0.62 68.0 -147.0 -318.0 489.0 -126.0 -477.0 60.119667 -19.831446 -92.8595 16.0 0.19 -0.27 -0.05 -31.0 89.0 -126.0 -541.0 293.0 86.0 0.0 0.0 0.0 51.0 1.2 -3.15 -0.46 -53.0 495.0 -14.0 -631.0 640.0 667.0 0 5
5.0 157.0 -28.1 129.0 25.0 0.16 0.08 -0.28 59.0 51.0 -236.0 140.0 486.0 -503.0 -88.1 -33.8 56.4 39.0 -1.57 0.08 0.41 70.0 -159.0 -336.0 460.0 -127.0 -498.0 52.61473 -26.343943 -96.951065 16.0 0.22 -0.35 -0.25 -42.0 81.0 -133.0 -538.0 279.0 71.0 0.0 0.0 0.0 49.0 1.16 -3.26 -0.44 -54.0 480.0 -17.0 -653.0 625.0 664.0 0 5
5.0 157.0 -28.1 129.0 25.0 0.18 0.1 -0.3 57.0 48.0 -236.0 140.0 490.0 -506.0 -89.8 -33.2 58.8 40.0 -1.38 0.0 0.31 71.0 -158.0 -353.0 424.0 -120.0 -517.0 50.3 -33.1 -95.0 17.0 0.24 -0.39 -0.36 -54.0 80.0 -135.0 -541.0 273.0 80.0 0.0 0.0 0.0 47.0 1.24 -3.48 -0.51 -63.0 456.0 -20.0 -680.0 562.0 663.0 1 5
6.0 157.0 -28.1 129.0 25.0 0.18 0.1 -0.31 58.0 50.0 -235.0 141.0 498.0 -502.0 -91.5 -32.6 61.0 42.0 -1.19 -0.06 0.28 69.0 -161.0 -368.0 416.0 -121.0 -519.0 45.393593 -30.064264 -101.321625 18.0 0.34 -0.43 -0.49 -52.0 77.0 -149.0 -545.0 265.0 74.0 0.0 0.0 0.0 44.0 1.32 -3.5 -0.57 -110.0 420.0 -19.0 -690.0 520.0 658.0 0 5
6.0 157.0 -28.1 129.0 25.0 0.19 0.1 -0.34 56.0 52.0 -235.0 144.0 497.0 -500.0 -93.0 -32.1 62.9 43.0 -1.01 -0.14 0.3 71.0 -165.0 -380.0 393.0 -112.0 -534.0 36.284683 -31.579264 -107.96589 18.0 0.48 -0.51 -0.67 -56.0 64.0 -159.0 -555.0 263.0 71.0 0.0 0.0 0.0 42.0 1.27 -3.23 -0.59 -117.0 394.0 -12.0 -701.0 456.0 634.0 0 5
6.0 156.0 -28.0 129.0 25.0 0.18 0.1 -0.38 54.0 52.0 -233.0 145.0 497.0 -496.0 -94.2 -31.7 64.5 44.0 -0.8 -0.22 0.39 74.0 -165.0 -390.0 378.0 -108.0 -540.0 30.613945 -45.04008 -101.28202 18.0 0.58 -0.58 -0.79 -78.0 54.0 -152.0 -557.0 246.0 76.0 0.0 0.0 0.0 39.0 1.36 -3.21 -0.52 -116.0 363.0 -7.0 -708.0 411.0 629.0 0 5
6.0 156.0 -27.9 129.0 25.0 0.18 0.1 -0.41 51.0 48.0 -231.0 143.0 496.0 -494.0 -95.0 -31.4 65.6 45.0 -0.55 -0.27 0.49 71.0 -160.0 -404.0 369.0 -104.0 -533.0 35.49818 -42.054794 -100.48968 18.0 0.56 -0.63 -0.79 -74.0 63.0 -153.0 -566.0 244.0 89.0 0.0 0.0 0.0 37.0 1.43 -3.23 -0.39 -152.0 334.0 -4.0 -706.0 337.0 608.0 0 5
6.0 155.0 -27.9 129.0 25.0 0.18 0.1 -0.43 54.0 48.0 -231.0 149.0 499.0 -487.0 -95.6 -31.1 66.4 45.0 -0.32 -0.31 0.57 70.0 -157.0 -411.0 358.0 -81.0 -547.0 42.08774 -36.63295 -99.638054 18.0 0.56 -0.64 -0.82 -64.0 73.0 -150.0 -574.0 222.0 68.0 0.0 0.0 0.0 37.0 1.38 -3.29 -0.26 -172.0 317.0 -6.0 -706.0 300.0 585.0 0 5
6.0 155.0 -27.8 129.0 24.0 0.16 0.08 -0.44 54.0 48.0 -227.0 150.0 502.0 -491.0 -96.0 -30.9 66.9 46.0 -0.06 -0.35 0.57 72.0 -158.0 -412.0 350.0 -97.0 -537.0 37.575855 -31.079456 -107.276306 18.0 0.63 -0.63 -0.85 -55.0 66.0 -158.0 -577.0 212.0 83.0 0.0 0.0 0.0 36.0 1.36 -3.18 -0.23 -191.0 302.0 -7.0 -699.0 225.0 559.0 0 5
6.0 155.0 -27.8 129.0 24.0 0.16 0.08 -0.48 57.0 51.0 -225.0 151.0 507.0 -485.0 -96.2 -30.9 67.0 45.0 0.16 -0.42 0.52 71.0 -152.0 -409.0 349.0 -80.0 -551.0 32.49579 -31.315996 -111.11136 18.0 0.71 -0.53 -0.9 -55.0 57.0 -160.0 -579.0 201.0 54.0 0.0 0.0 0.0 36.0 1.38 -3.12 -0.28 -198.0 286.0 -11.0 -681.0 184.0 542.0 0 5
6.0 154.0 -27.8 129.0 24.0 0.18 0.08 -0.51 58.0 50.0 -224.0 142.0 514.0 -478.0 -96.4 -30.9 66.8 45.0 0.4 -0.48 0.46 66.0 -151.0 -410.0 350.0 -84.0 -542.0 35.762962 -36.37629 -104.82058 18.0 0.77 -0.45 -0.95 -62.0 61.0 -151.0 -594.0 189.0 66.0 0.0 0.0 0.0 35.0 1.33 -2.99 -0.33 -219.0 266.0 -9.0 -665.0 99.0 511.0 0 5
6.0 153.0 -27.9 129.0 24.0 0.19 0.06 -0.52 57.0 47.0 -224.0 149.0 510.0 -476.0 -96.5 -31.0 66.3 44.0 0.63 -0.55 0.38 75.0 -154.0 -398.0 360.0 -79.0 -541.0 36.679047 -36.679047 -103.89018 18.0 0.77 -0.47 -0.79 -62.0 62.0 -149.0 -589.0 187.0 61.0 0.0 0.0 0.0 33.0 1.22 -3.0 -0.41 -197.0 251.0 -12.0 -658.0 60.0 495.0 0 5
6.0 153.0 -28.0 129.0 24.0 0.21 0.06 -0.56 58.0 44.0 -223.0 144.0 517.0 -465.0 -96.5 -31.3 65.4 43.0 0.85 -0.59 0.33 82.0 -154.0 -388.0 367.0 -70.0 -541.0 42.579956 -35.036213 -100.38612 18.0 0.75 -0.47 -0.69 -59.0 71.0 -145.0 -600.0 178.0 50.0 0.0 0.0 0.0 32.0 1.27 -3.07 -0.59 -218.0 223.0 -18.0 -621.0 -24.0 449.0 0 5
6.0 152.0 -28.1 129.0 24.0 0.22 0.05 -0.57 58.0 44.0 -220.0 149.0 523.0 -461.0 -96.4 -31.7 64.3 43.0 1.03 -0.66 0.31 79.0 -151.0 -383.0 377.0 -74.0 -522.0 39.67194 -32.165913 -104.80687 17.0 0.69 -0.45 -0.52 -54.0 66.0 -148.0 -603.0 169.0 49.0 0.0 0.0 0.0 33.0 1.33 -2.83 -0.8 -254.0 192.0 -17.0 -606.0 -61.0 429.0 0 5
6.0 152.0 -28.3 129.0 23.0 0.24 0.06 -0.59 58.0 44.0 -218.0 152.0 523.0 -464.0 -96.1 -32.1 63.0 43.0 1.14 -0.72 0.33 83.0 -152.0 -381.0 394.0 -61.0 -530.0 30.682505 -31.952415 -111.99067 17.0 0.59 -0.42 -0.39 -52.0 50.0 -149.0 -598.0 163.0 40.0 0.0 0.0 0.0 31.0 1.22 -2.62 -0.97 -248.0 170.0 -18.0 -566.0 -138.0 387.0 0 5
6.0 151.0 -28.5 129.0 22.0 0.27 0.08 -0.59 55.0 37.0 -209.0 154.0 532.0 -449.0 -95.7 -32.6 61.5 41.0 1.27 -0.8 0.41 88.0 -149.0 -368.0 414.0 -48.0 -517.0 19.436438 -30.024065 -120.977356 17.0 0.53 -0.39 -0.46 -49.0 32.0 -155.0 -599.0 155.0 40.0 0.0 0.0 0.0 29.0 1.24 -2.38 -1.13 -253.0 138.0 -16.0 -549.0 -172.0 358.0 0 5
6.0 151.0 -28.8 129.0 22.0 0.31 0.1 -0.59 57.0 37.0 -207.0 154.0 529.0 -449.0 -95.0 -33.3 59.7 40.0 1.45 -0.87 0.49 87.0 -147.0 -357.0 424.0 -51.0 -507.0 18.81853 -26.249746 -124.51751 17.0 0.43 -0.45 -0.64 -43.0 31.0 -157.0 -610.0 146.0 35.0 0.0 0.0 0.0 28.0 1.25 -2.3 -1.21 -249.0 106.0 -12.0 -509.0 -237.0 304.0 0 5
6.0 150.0 -29.2 129.0 22.0 0.35 0.11 -0.64 57.0 32.0 -205.0 155.0 531.0 -444.0 -94.0 -34.1 57.6 39.0 1.59 -0.96 0.57 87.0 -146.0 -342.0 456.0 -45.0 -503.0 17.281208 -24.55669 -126.84377 17.0 0.4 -0.51 -0.79 -41.0 29.0 -161.0 -614.0 136.0 27.0 0.0 0.0 0.0 27.0 1.3 -2.15 -1.16 -255.0 70.0 -7.0 -483.0 -281.0 275.0 0 5
6.0 150.0 -29.6 129.0 21.0 0.37 0.13 -0.66 53.0 26.0 -199.0 165.0 540.0 -423.0 -92.9 -34.8 55.6 38.0 1.7 -1.03 0.62 90.0 -144.0 -330.0 465.0 -46.0 -495.0 21.143534 -27.753775 -121.84227 18.0 0.4 -0.42 -0.87 -47.0 36.0 -161.0 -611.0 129.0 38.0 0.0 0.0 0.0 26.0 1.4 -2.1 -0.98 -252.0 39.0 -2.0 -435.0 -346.0 226.0 0 5
6.0 149.0 -29.9 129.0 21.0 0.39 0.11 -0.66 46.0 25.0 -198.0 168.0 550.0 -428.0 -91.5 -35.7 53.1 37.0 1.81 -1.08 0.67 95.0 -139.0 -323.0 492.0 -46.0 -475.0 22.784483 -28.31443 -120.33149 17.0 0.42 -0.27 -0.94 -47.0 38.0 -157.0 -618.0 120.0 38.0 0.0 0.0 0.0 28.0 1.49 -2.01 -0.74 -270.0 13.0 -1.0 -419.0 -370.0 198.0 0 5
6.0 149.0 -30.2 130.0 20.0 0.39 0.11 -0.67 42.0 26.0 -193.0 164.0 550.0 -415.0 -89.9 -36.6 50.4 36.0 1.98 -1.14 0.69 93.0 -134.0 -310.0 516.0 -34.0 -449.0 30.726582 -27.630362 -115.12932 17.0 0.39 -0.26 -0.95 -46.0 51.0 -154.0 -626.0 111.0 31.0 0.0 0.0 0.0 28.0 1.56 -1.91 -0.46 -275.0 -11.0 -5.0 -374.0 -430.0 156.0 0 5
6.0 148.0 -30.5 130.0 20.0 0.35 0.1 -0.71 40.0 26.0 -192.0 167.0 555.0 -409.0 -88.2 -37.4 47.5 34.0 2.12 -1.19 0.66 93.0 -133.0 -290.0 536.0 -32.0 -453.0 34.737793 -24.738895 -113.80626 17.0 0.35 -0.31 -0.84 -41.0 57.0 -152.0 -619.0 106.0 28.0 0.0 0.0 0.0 29.0 1.59 -1.78 -0.21 -286.0 -25.0 -4.0 -357.0 -441.0 137.0 0 5
6.0 147.0 -30.7 130.0 20.0 0.32 0.06 -0.72 36.0 25.0 -188.0 167.0 559.0 -399.0 -86.3 -38.2 44.2 34.0 2.28 -1.22 0.61 93.0 -130.0 -287.0 562.0 -20.0 -427.0 32.30501 -21.927204 -117.57706 17.0 0.29 -0.31 -0.62 -37.0 54.0 -157.0 -619.0 100.0 30.0 0.0 0.0 0.0 30.0 1.65 -1.69 0.0 -287.0 -37.0 -9.0 -318.0 -486.0 108.0 0 5
6.0 146.0 -30.8 130.0 20.0 0.27 0.05 -0.74 36.0 26.0 -190.0 165.0 565.0 -388.0 -84.1 -39.0 40.6 33.0 2.36 -1.25 0.57 94.0 -126.0 -283.0 598.0 -5.0 -398.0 31.432634 -21.158138 -118.774284 17.0 0.24 -0.24 -0.44 -36.0 53.0 -159.0 -625.0 106.0 47.0 0.0 0.0 0.0 29.0 1.72 -1.67 0.15 -281.0 -50.0 -15.0 -300.0 -510.0 83.0 0 5
6.0 146.0 -30.9 130.0 19.0 0.26 0.03 -0.71 39.0 19.0 -184.0 171.0 566.0 -375.0 -81.9 -39.7 36.8 32.0 2.49 -1.3 0.54 93.0 -120.0 -275.0 602.0 -6.0 -375.0 31.276672 -23.286818 -117.60052 17.0 0.18 -0.16 -0.31 -39.0 52.0 -156.0 -621.0 90.0 30.0 0.0 0.0 0.0 31.0 1.77 -1.56 0.25 -294.0 -58.0 -21.0 -257.0 -539.0 56.0 0 5
6.0 145.0 -31.0 130.0 20.0 0.22 0.03 -0.67 42.0 24.0 -189.0 169.0 572.0 -385.0 -79.4 -40.3 32.8 31.0 2.68 -1.38 0.54 89.0 -115.0 -262.0 631.0 21.0 -338.0 34.744205 -26.126793 -112.919815 17.0 0.13 -0.11 -0.15 -44.0 58.0 -154.0 -622.0 87.0 23.0 0.0 0.0 0.0 33.0 1.75 -1.4 0.3 -310.0 -70.0 -25.0 -245.0 -560.0 44.0 0 5
6.0 144.0 -31.0 130.0 20.0 0.21 0.05 -0.69 44.0 28.0 -186.0 163.0 571.0 -375.0 -76.6 -40.8 28.2 29.0 2.86 -1.45 0.54 86.0 -110.0 -244.0 653.0 20.0 -313.0 30.147442 -25.906158 -116.78152 18.0 0.11 -0.1 0.1 -44.0 51.0 -158.0 -618.0 89.0 40.0 0.0 0.0 0.0 34.0 1.67 -1.12 0.34 -320.0 -79.0 -26.0 -211.0 -572.0 35.0 0 5
6.0 144.0 -31.1 130.0 20.0 0.19 0.06 -0.67 46.0 27.0 -184.0 169.0 578.0 -365.0 -73.9 -41.2 23.3 28.0 3.07 -1.49 0.57 98.0 -113.0 -229.0 678.0 35.0 -272.0 25.391878 -24.802507 -121.19061 18.0 0.06 -0.08 0.31 -43.0 44.0 -164.0 -622.0 83.0 37.0 0.0 0.0 0.0 32.0 1.61 -0.93 0.36 -303.0 -80.0 -26.0 -196.0 -583.0 15.0 0 5
6.0 143.0 -31.2 130.0 19.0 0.18 0.06 -0.64 48.0 26.0 -181.0 166.0 583.0 -358.0 -71.1 -41.4 18.4 26.0 3.23 -1.56 0.64 90.0 -105.0 -218.0 703.0 53.0 -226.0 26.230883 -22.667238 -122.0533 18.0 -0.02 -0.05 0.49 -39.0 45.0 -163.0 -627.0 93.0 39.0 0.0 0.0 0.0 31.0 1.57 -0.87 0.34 -292.0 -81.0 -29.0 -169.0 -604.0 3.0 0 5
6.0 143.0 -31.2 130.0 19.0 0.19 0.06 -0.59 52.0 25.0 -177.0 172.0 580.0 -354.0 -68.7 -41.5 13.8 24.0 3.42 -1.59 0.66 77.0 -87.0 -207.0 712.0 60.0 -221.0 19.601284 -24.296951 -125.60903 18.0 -0.11 0.02 0.64 -42.0 34.0 -166.0 -623.0 85.0 37.0 0.0 0.0 0.0 31.0 1.54 -0.82 0.3 -286.0 -88.0 -36.0 -158.0 -616.0 -9.0 0 5
6.0 142.0 -31.4 130.0 19.0 0.21 0.08 -0.56 53.0 27.0 -179.0 172.0 584.0 -348.0 -67.0 -41.7 9.32 22.0 3.56 -1.67 0.64 71.0 -81.0 -183.0 724.0 81.0 -161.0 14.812392 -25.416513 -127.494934 19.0 -0.16 0.06 0.75 -46.0 27.0 -175.0 -620.0 88.0 53.0 0.0 0.0 0.0 33.0 1.51 -0.67 0.26 -299.0 -105.0 -45.0 -136.0 -633.0 -25.0 0 5
6.0 142.0 -31.5 130.0 20.0 0.24 0.08 -0.54 55.0 28.0 -182.0 172.0 588.0 -344.0 -64.6 -41.7 4.21 20.0 3.66 -1.73 0.69 74.0 -87.0 -157.0 740.0 95.0 -89.0 17.876356 -24.491333 -126.538765 19.0 -0.13 0.14 0.79 -45.0 33.0 -177.0 -617.0 103.0 39.0 0.0 0.0 0.0 34.0 1.41 -0.39 0.25 -311.0 -119.0 -52.0 -129.0 -631.0 -39.0 0 5
6.0 141.0 -31.7 130.0 19.0 0.26 0.1 -0.52 55.0 27.0 -181.0 170.0 588.0 -333.0 -61.9 -41.4 -0.65 19.0 3.73 -1.8 0.84 64.0 -84.0 -157.0 736.0 109.0 -69.0 22.477137 -21.242983 -125.8963 17.0 -0.13 0.26 0.8 -35.0 37.0 -158.0 -625.0 105.0 41.0 0.0 0.0 0.0 33.0 1.3 -0.13 0.23 -297.0 -122.0 -55.0 -120.0 -645.0 -40.0 0 5
6.0 141.0 -32.0 130.0 19.0 0.29 0.1 -0.48 54.0 29.0 -179.0 170.0 596.0 -334.0 -58.6 -40.8 -6.35 16.0 3.76 -1.86 0.89 55.0 -59.0 -135.0 729.0 137.0 -16.0 23.449759 -18.021875 -127.29549 15.0 -0.26 0.37 0.95 -27.0 35.0 -144.0 -615.0 110.0 52.0 0.0 0.0 0.0 33.0 1.17 0.05 0.2 -295.0 -127.0 -62.0 -108.0 -644.0 -39.0 0 5
6.0 140.0 -32.2 130.0 19.0 0.29 0.11 -0.46 49.0 33.0 -180.0 173.0 594.0 -334.0 -54.6 -39.9 -12.5 12.0 3.84 -1.96 0.79 43.0 -31.0 -106.0 725.0 150.0 18.0 19.491852 -19.491852 -129.33357 15.0 -0.4 0.45 1.18 -29.0 29.0 -144.0 -613.0 117.0 43.0 0.0 0.0 0.0 34.0 1.08 0.35 0.18 -301.0 -131.0 -65.0 -110.0 -649.0 -63.0 0 5
6.0 140.0 -32.4 130.0 20.0 0.29 0.13 -0.44 44.0 39.0 -184.0 175.0 596.0 -334.0 -50.9 -38.8 -18.2 10.0 3.73 -2.02 0.75 31.0 -30.0 -88.0 702.0 186.0 82.0 17.955738 -23.168823 -127.5631 16.0 -0.53 0.55 1.33 -36.0 28.0 -150.0 -614.0 132.0 59.0 0.0 0.0 0.0 34.0 1.03 0.67 0.21 -296.0 -136.0 -67.0 -111.0 -653.0 -57.0 0 5
6.0 140.0 -32.6 130.0 20.0 0.24 0.14 -0.46 41.0 40.0 -184.0 174.0 598.0 -321.0 -47.2 -37.4 -23.9 7.0 3.68 -2.02 0.87 35.0 -46.0 -36.0 682.0 212.0 138.0 25.022984 -24.350958 -121.78971 16.0 -0.63 0.69 1.36 -37.0 38.0 -144.0 -605.0 139.0 63.0 0.0 0.0 0.0 34.0 0.96 0.96 0.31 -298.0 -133.0 -64.0 -115.0 -654.0 -71.0 0 5
6.0 139.0 -32.7 130.0 19.0 0.18 0.14 -0.48 40.0 41.0 -181.0 168.0 599.0 -315.0 -43.2 -35.4 -29.5 4.0 3.69 -2.04 0.97 8.0 -13.0 -34.0 667.0 225.0 159.0 39.239765 -23.298819 -110.77216 14.0 -0.8 0.87 1.43 -32.0 53.0 -124.0 -594.0 153.0 69.0 0.0 0.0 0.0 34.0 0.87 1.14 0.43 -301.0 -121.0 -65.0 -118.0 -653.0 -65.0 0 5
6.0 139.0 -32.7 130.0 19.0 0.11 0.14 -0.49 41.0 43.0 -180.0 174.0 599.0 -317.0 -39.7 -33.0 -34.9 4.0 3.68 -2.02 0.74 -18.0 15.0 -33.0 635.0 250.0 207.0 44.998253 -26.244617 -103.97327 13.0 -1.0 1.06 1.56 -34.0 57.0 -113.0 -596.0 169.0 70.0 0.0 0.0 0.0 33.0 0.79 1.27 0.57 -302.0 -107.0 -59.0 -126.0 -640.0 -63.0 0 5
6.0 139.0 -32.6 130.0 19.0 0.06 0.13 -0.52 44.0 41.0 -177.0 174.0 604.0 -310.0 -36.8 -30.5 -39.9 3.0 3.63 -2.01 0.41 -26.0 7.0 -10.0 607.0 267.0 244.0 46.730232 -33.229073 -98.10054 13.0 -1.17 1.2 1.72 -42.0 58.0 -107.0 -580.0 191.0 85.0 0.0 0.0 0.0 32.0 0.75 1.4 0.67 -299.0 -90.0 -58.0 -137.0 -634.0 -42.0 0 5
6.0 138.0 -32.6 130.0 18.0 0.03 0.13 -0.51 50.0 39.0 -169.0 174.0 601.0 -309.0 -34.0 -26.8 -45.0 4.0 3.64 -1.93 0.15 -28.0 -2.0 27.0 553.0 293.0 288.0 47.569283 -43.45725 -89.9401 14.0 -1.32 1.35 1.89 -57.0 62.0 -106.0 -568.0 217.0 88.0 0.0 0.0 0.0 32.0 0.79 1.57 0.71 -301.0 -77.0 -59.0 -145.0 -626.0 -49.0 0 5
6.0 138.0 -32.6 130.0 19.0 0.03 0.13 -0.54 58.0 40.0 -168.0 172.0 605.0 -295.0 -32.3 -23.4 -49.3 6.0 3.69 -1.8 0.03 -50.0 -1.0 37.0 539.0 292.0 313.0 48.043972 -46.4221 -87.17678 14.0 -1.35 1.51 1.87 -62.0 64.0 -106.0 -544.0 253.0 97.0 0.0 0.0 0.0 33.0 0.77 1.67 0.72 -307.0 -66.0 -56.0 -169.0 -611.0 -18.0 0 5
6.0 137.0 -32.6 130.0 18.0 0.03 0.13 -0.54 56.0 33.0 -159.0 174.0 608.0 -283.0 -31.5 -20.3 -52.8 8.0 3.64 -1.64 -0.15 -73.0 13.0 30.0 476.0 302.0 368.0 52.005333 -40.539963 -88.35512 13.0 -1.35 1.62 1.67 -50.0 63.0 -98.0 -536.0 277.0 99.0 0.0 0.0 0.0 33.0 0.71 1.75 0.74 -313.0 -58.0 -51.0 -178.0 -612.0 -15.0 0 5
6.0 137.0 -32.6 130.0 17.0 0.06 0.14 -0.54 56.0 33.0 -156.0 170.0 608.0 -305.0 -31.2 -16.6 -56.6 10.0 3.63 -1.56 -0.28 -89.0 14.0 41.0 425.0 320.0 415.0 58.7784 -41.82108 -81.298325 13.0 -1.4 1.69 1.33 -52.0 71.0 -93.0 -511.0 306.0 112.0 0.0 0.0 0.0 32.0 0.67 1.85 0.72 -307.0 -48.0 -50.0 -206.0 -587.0 3.0 0 5
6.0 137.0 -32.7 130.0 17.0 0.08 0.14 -0.51 58.0 32.0 -154.0 176.0 608.0 -272.0 -31.4 -13.7 -60.0 12.0 3.58 -1.49 -0.15 -109.0 -9.0 54.0 390.0 311.0 448.0 67.17527 -53.66076 -63.44352 14.0 -1.43 1.83 0.95 -69.0 84.0 -80.0 -486.0 341.0 125.0 0.0 0.0 0.0 31.0 0.67 1.93 0.72 -302.0 -41.0 -43.0 -218.0 -585.0 1.0 0 5
6.0 136.0 -32.7 129.0 17.0 0.1 0.16 -0.48 63.0 29.0 -153.0 175.0 613.0 -287.0 -31.4 -10.9 -63.1 15.0 3.55 -1.41 0.13 -130.0 -14.0 72.0 329.0 327.0 483.0 73.912155 -56.58833 -53.363483 15.0 -1.38 1.96 0.59 -78.0 98.0 -74.0 -463.0 357.0 136.0 0.0 0.0 0.0 33.0 0.66 2.06 0.75 -314.0 -41.0 -42.0 -238.0 -556.0 29.0 0 5
6.0 136.0 -32.9 129.0 17.0 0.16 0.16 -0.43 67.0 27.0 -148.0 174.0 613.0 -272.0 -31.5 -8.04 -66.2 17.0 3.48 -1.33 0.28 -152.0 -3.0 74.0 295.0 330.0 497.0 83.905685 -47.72603 -50.662167 16.0 -1.32 2.01 0.54 -71.0 115.0 -75.0 -436.0 388.0 147.0 0.0 0.0 0.0 33.0 0.59 2.2 0.84 -320.0 -40.0 -37.0 -258.0 -546.0 40.0 0 5
6.0 136.0 -33.2 129.0 16.0 0.26 0.16 -0.31 74.0 29.0 -136.0 175.0 616.0 -281.0 -31.8 -5.42 -69.1 19.0 3.36 -1.33 0.25 -175.0 -2.0 76.0 236.0 337.0 520.0 92.10949 -38.674725 -49.26576 17.0 -1.25 1.98 0.67 -63.0 133.0 -79.0 -423.0 398.0 152.0 0.0 0.0 0.0 33.0 0.56 2.33 0.92 -319.0 -35.0 -39.0 -288.0 -521.0 65.0 0 5
6.0 135.0 -33.6 130.0 18.0 0.32 0.11 -0.3 72.0 43.0 -152.0 179.0 616.0 -276.0 -32.2 -2.97 -71.8 21.0 3.34 -1.33 0.21 -188.0 -18.0 84.0 175.0 331.0 543.0 96.5 -35.7 -46.7 18.0 -1.19 1.93 0.67 -62.0 146.0 -80.0 -381.0 430.0 156.0 0.0 0.0 0.0 34.0 0.5 2.49 1.0 -326.0 -27.0 -35.0 -304.0 -503.0 80.0 1 5
7.0 135.0 -34.1 130.0 17.0 0.39 0.1 -0.3 69.0 33.0 -153.0 180.0 618.0 -279.0 -32.7 -0.13 -75.1 23.0 3.36 -1.3 0.26 -213.0 -23.0 84.0 136.0 336.0 559.0 101.325516 -36.895123 -39.754383 19.0 -1.09 1.88 0.59 -68.0 160.0 -73.0 -369.0 448.0 154.0 0.0 0.0 0.0 32.0 0.47 2.67 1.03 -316.0 -17.0 -34.0 -343.0 -463.0 122.0 0 5
7.0 135.0 -34.6 131.0 17.0 0.51 0.13 -0.25 72.0 36.0 -148.0 177.0 620.0 -271.0 -33.2 2.25 -77.8 26.0 3.28 -1.27 0.33 -246.0 -13.0 65.0 72.0 332.0 562.0 107.118004 -29.509027 -39.057262 19.0 -1.01 1.78 0.57 -55.0 166.0 -72.0 -330.0 467.0 164.0 0.0 0.0 0.0 32.0 0.43 2.86 1.07 -312.0 -5.0 -32.0 -358.0 -442.0 148.0 0 5
7.0 134.0 -35.2 131.0 16.0 0.58 0.13 -0.16 57.0 30.0 -142.0 178.0 618.0 -272.0 -33.9 4.63 -80.6 28.0 3.15 -1.22 0.33 -262.0 -6.0 66.0 33.0 328.0 575.0 112.24451 -16.358946 -41.339787 19.0 -0.93 1.65 0.64 -30.0 166.0 -74.0 -321.0 477.0 163.0 0.0 0.0 0.0 32.0 0.42 3.03 1.15 -313.0 3.0 -28.0 -402.0 -397.0 190.0 0 5
7.0 134.0 -35.7 132.0 16.0 0.61 0.11 -0.07 56.0 30.0 -139.0 180.0 616.0 -271.0 -34.6 7.01 -83.5 29.0 3.05 -1.17 0.33 -268.0 -16.0 81.0 -23.0 340.0 577.0 116.063644 -7.1879606 -40.306034 18.0 -0.88 1.59 0.8 -13.0 166.0 -71.0 -290.0 498.0 160.0 0.0 0.0 0.0 32.0 0.32 3.16 1.23 -315.0 14.0 -28.0 -423.0 -370.0 205.0 0 5
7.0 134.0 -36.2 132.0 16.0 0.64 0.11 0.02 51.0 32.0 -140.0 184.0 616.0 -277.0 -35.4 9.15 -86.2 30.0 2.89 -1.09 0.41 -284.0 -24.0 79.0 -56.0 333.0 589.0 116.67299 -5.4112864 -40.000454 19.0 -0.82 1.57 0.84 -10.0 170.0 -72.0 -271.0 507.0 153.0 0.0 0.0 0.0 32.0 0.22 3.13 1.35 -308.0 32.0 -28.0 -465.0 -306.0 254.0 0 5
7.0 134.0 -36.7 133.0 15.0 0.69 0.11 0.08 50.0 35.0 -138.0 180.0 621.0 -271.0 -36.0 11.0 -88.4 32.0 2.65 -1.0 0.49 -302.0 -24.0 63.0 -104.0 342.0 591.0 120.801315 -2.6413035 -36.173077 19.0 -0.71 1.54 0.74 -5.0 177.0 -67.0 -239.0 519.0 164.0 0.0 0.0 0.0 32.0 0.06 3.07 1.43 -309.0 54.0 -29.0 -483.0 -275.0 281.0 0 5
7.0 134.0 -37.2 134.0 16.0 0.71 0.11 0.15 45.0 39.0 -140.0 192.0 619.0 -283.0 -36.6 12.9 -90.8 32.0 2.36 -0.92 0.57 -305.0 -21.0 55.0 -138.0 337.0 580.0 121.594444 1.5542581 -35.448097 20.0 -0.61 1.49 0.57 3.0 181.0 -67.0 -231.0 531.0 154.0 0.0 0.0 0.0 33.0 -0.05 3.31 1.43 -318.0 76.0 -29.0 -524.0 -212.0 342.0 0 5
7.0 134.0 -37.7 135.0 16.0 0.72 0.1 0.16 47.0 43.0 -143.0 191.0 618.0 -274.0 -37.1 14.3 -92.7 31.0 2.14 -0.88 0.67 -297.0 -23.0 52.0 -172.0 334.0 586.0 125.35023 3.5010214 -31.522156 20.0 -0.56 1.43 0.43 7.0 190.0 -62.0 -206.0 552.0 158.0 0.0 0.0 0.0 33.0 0.03 3.79 1.25 -303.0 110.0 -31.0 -543.0 -183.0 374.0 0 5
7.0 134.0 -38.2 135.0 16.0 0.72 0.1 0.16 42.0 45.0 -143.0 191.0 614.0 -275.0 -37.5 15.7 -94.7 30.0 1.93 -0.88 0.8 -289.0 -33.0 40.0 -207.0 335.0 563.0 131.04242 1.4280696 -25.996197 21.0 -0.53 1.38 0.38 3.0 203.0 -54.0 -186.0 556.0 148.0 0.0 0.0 0.0 31.0 0.13 3.81 1.08 -264.0 143.0 -20.0 -581.0 -107.0 425.0 0 5
7.0 134.0 -38.7 136.0 16.0 0.72 0.1 0.13 39.0 48.0 -145.0 202.0 621.0 -273.0 -37.6 16.8 -96.4 29.0 1.75 -0.9 0.94 -281.0 -39.0 36.0 -218.0 340.0 565.0 134.42514 2.2351592 -22.540108 23.0 -0.5 1.33 0.41 5.0 218.0 -50.0 -155.0 564.0 143.0 0.0 0.0 0.0 36.0 0.06 3.52 1.02 -306.0 170.0 4.0 -604.0 -73.0 453.0 0 5
7.0 134.0 -39.2 137.0 16.0 0.69 0.1 0.15 33.0 48.0 -142.0 199.0 614.0 -287.0 -37.7 17.8 -98.2 29.0 1.59 -0.9 0.98 -281.0 -33.0 24.0 -257.0 342.0 558.0 128.50642 8.538867 -27.19887 24.0 -0.42 1.24 0.36 20.0 225.0 -63.0 -148.0 559.0 141.0 0.0 0.0 0.0 39.0 -0.18 3.42 1.02 -328.0 187.0 2.0 -628.0 0.0 501.0 0 5
7.0 134.0 -39.7 138.0 15.0 0.66 0.1 0.16 34.0 44.0 -139.0 203.0 611.0 -289.0 -37.9 18.7 -99.8 29.0 1.45 -0.85 0.92 -278.0 -29.0 9.0 -282.0 337.0 544.0 123.99337 15.258898 -29.120476 24.0 -0.35 1.11 0.36 36.0 224.0 -68.0 -126.0 567.0 135.0 0.0 0.0 0.0 37.0 -0.37 3.76 0.92 -286.0 221.0 6.0 -641.0 38.0 544.0 0 5
7.0 134.0 -40.1 138.0 15.0 0.63 0.1 0.18 36.0 45.0 -139.0 208.0 609.0 -296.0 -38.2 19.4 -101.0 28.0 1.27 -0.79 0.79 -275.0 -31.0 3.0 -287.0 352.0 563.0 126.47764 17.18837 -25.062138 24.0 -0.27 1.03 0.39 40.0 223.0 -58.0 -117.0 581.0 132.0 0.0 0.0 0.0 35.0 -0.35 4.11 0.71 -243.0 245.0 26.0 -665.0 121.0 598.0 0 5
7.0 134.0 -40.5 139.0 16.0 0.59 0.1 0.18 38.0 46.0 -142.0 214.0 608.0 -303.0 -38.6 20.1 -102.0 28.0 1.14 -0.71 0.62 -272.0 -35.0 7.0 -311.0 349.0 552.0 131.57947 14.7146015 -20.673122 24.0 -0.22 1.0 0.39 35.0 231.0 -49.0 -96.0 582.0 137.0 0.0 0.0 0.0 36.0 -0.24 3.98 0.61 -240.0 249.0 47.0 -671.0 160.0 616.0 0 5
7.0 134.0 -40.9 140.0 16.0 0.56 0.11 0.18 42.0 47.0 -141.0 207.0 612.0 -287.0 -39.1 20.7 -103.0 28.0 1.09 -0.67 0.51 -275.0 -38.0 4.0 -317.0 351.0 550.0 130.60835 17.753632 -19.42529 25.0 -0.21 0.95 0.36 43.0 235.0 -47.0 -78.0 592.0 128.0 0.0 0.0 0.0 37.0 -0.27 3.56 0.71 -262.0 246.0 57.0 -691.0 226.0 673.0 0 5
7.0 134.0 -41.2 140.0 16.0 0.55 0.11 0.16 43.0 46.0 -141.0 206.0 612.0 -293.0 -39.8 21.4 -104.0 29.0 1.06 -0.61 0.41 -278.0 -45.0 -6.0 -328.0 343.0 529.0 124.35517 24.306479 -21.470541 26.0 -0.19 0.85 0.28 61.0 240.0 -54.0 -72.0 598.0 124.0 0.0 0.0 0.0 39.0 -0.43 3.29 0.92 -280.0 249.0 52.0 -696.0 257.0 709.0 0 5
7.0 134.0 -41.6 141.0 16.0 0.51 0.13 0.15 39.0 48.0 -143.0 207.0 602.0 -304.0 -40.4 22.0 -105.0 28.0 0.98 -0.58 0.39 -273.0 -49.0 -17.0 -346.0 339.0 532.0 118.81099 30.62561 -22.214293 26.0 -0.14 0.77 0.18 78.0 240.0 -57.0 -64.0 597.0 118.0 0.0 0.0 0.0 38.0 -0.48 3.55 1.07 -246.0 278.0 55.0 -705.0 333.0 767.0 0 5
7.0 134.0 -41.9 141.0 16.0 0.48 0.11 0.13 38.0 46.0 -143.0 212.0 604.0 -298.0 -41.0 22.6 -106.0 28.0 0.93 -0.53 0.41 -267.0 -53.0 -21.0 -354.0 337.0 540.0 119.67652 29.516153 -22.292147 26.0 -0.08 0.71 0.1 75.0 240.0 -57.0 -47.0 590.0 113.0 0.0 0.0 0.0 35.0 -0.37 3.9 1.13 -175.0 291.0 67.0 -702.0 380.0 792.0 0 5
7.0 134.0 -42.3 142.0 16.0 0.45 0.13 0.13 37.0 45.0 -145.0 218.0 603.0 -310.0 -41.5 23.2 -107.0 28.0 0.9 -0.51 0.48 -269.0 -56.0 -23.0 -365.0 335.0 542.0 123.689575 26.577198 -19.728796 26.0 -0.02 0.63 0.02 67.0 241.0 -50.0 -38.0 597.0 124.0 0.0 0.0 0.0 37.0 -0.13 3.53 1.31 -211.0 282.0 71.0 -703.0 439.0 836.0 0 5
7.0 134.0 -42.5 142.0 16.0 0.4 0.13 0.11 39.0 46.0 -145.0 217.0 600.0 -311.0 -42.1 23.7 -108.0 27.0 0.82 -0.42 0.36 -264.0 -35.0 -17.0 -371.0 334.0 525.0 123.40181 26.21574 -20.647493 26.0 0.03 0.56 -0.07 67.0 244.0 -53.0 -32.0 602.0 116.0 0.0 0.0 0.0 38.0 -0.1 3.4 1.54 -226.0 294.0 65.0 -703.0 474.0 851.0 0 5
7.0 134.0 -42.7 142.0 16.0 0.35 0.11 0.1 38.0 50.0 -147.0 216.0 604.0 -307.0 -42.7 24.3 -108.0 27.0 0.8 -0.34 0.3 -265.0 -30.0 -23.0 -377.0 329.0 527.0 121.14205 28.005901 -21.919544 28.0 0.02 0.53 -0.02 75.0 254.0 -59.0 -20.0 599.0 116.0 0.0 0.0 0.0 40.0 -0.18 3.6 1.72 -199.0 332.0 63.0 -688.0 541.0 897.0 0 5
7.0 134.0 -42.9 143.0 16.0 0.29 0.11 0.07 36.0 54.0 -148.0 215.0 602.0 -318.0 -43.3 25.0 -109.0 28.0 0.74 -0.26 0.28 -269.0 -34.0 -29.0 -386.0 326.0 523.0 120.3918 29.669802 -20.935097 29.0 -0.06 0.5 0.18 83.0 265.0 -59.0 -17.0 601.0 112.0 0.0 0.0 0.0 41.0 -0.21 3.76 1.8 -156.0 361.0 66.0 -679.0 571.0 898.0 0 5
7.0 135.0 -43.0 143.0 16.0 0.22 0.11 0.02 31.0 58.0 -147.0 219.0 596.0 -321.0 -43.9 25.6 -109.0 28.0 0.69 -0.26 0.33 -270.0 -46.0 -30.0 -390.0 319.0 534.0 120.07109 27.947184 -23.613543 29.0 -0.03 0.45 0.31 79.0 267.0 -67.0 -9.0 607.0 103.0 0.0 0.0 0.0 42.0 -0.18 3.55 1.89 -131.0 384.0 61.0 -660.0 623.0 925.0 0 5
7.0 135.0 -43.0 143.0 16.0 0.16 0.11 -0.05 32.0 58.0 -145.0 226.0 597.0 -306.0 -44.3 26.1 -109.0 29.0 0.63 -0.29 0.46 -272.0 -61.0 -37.0 -386.0 324.0 539.0 117.89785 27.529242 -27.152822 28.0 0.11 0.32 0.36 75.0 255.0 -74.0 -9.0 607.0 101.0 0.0 0.0 0.0 44.0 -0.06 3.29 1.89 -146.0 400.0 55.0 -648.0 657.0 933.0 0 5
7.0 135.0 -42.9 143.0 16.0 0.06 0.11 -0.11 32.0 55.0 -141.0 224.0 593.0 -311.0 -44.4 26.4 -109.0 29.0 0.51 -0.34 0.66 -272.0 -72.0 -37.0 -393.0 323.0 522.0 113.140686 32.092 -28.94215 27.0 0.26 0.16 0.31 84.0 241.0 -76.0 -7.0 612.0 92.0 0.0 0.0 0.0 46.0 0.03 3.5 1.76 -138.0 430.0 52.0 -622.0 703.0 943.0 0 5
7.0 135.0 -42.8 143.0 16.0 -0.02 0.11 -0.16 36.0 53.0 -146.0 217.0 606.0 -328.0 -44.2 26.6 -110.0 29.0 0.35 -0.4 0.85 -273.0 -75.0 -39.0 -398.0 330.0 530.0 110.64575 34.890457 -29.346773 27.0 0.34 0.08 0.15 91.0 238.0 -77.0 -11.0 605.0 89.0 0.0 0.0 0.0 49.0 0.11 3.71 1.49 -133.0 455.0 55.0 -608.0 724.0 948.0 0 5
7.0 135.0 -42.6 143.0 17.0 -0.08 0.11 -0.2 39.0 49.0 -153.0 220.0 601.0 -326.0 -43.8 26.6 -110.0 29.0 0.24 -0.45 0.97 -277.0 -74.0 -36.0 -390.0 321.0 526.0 109.11569 36.74788 -29.38199 28.0 0.39 0.08 -0.02 98.0 242.0 -79.0 -19.0 613.0 89.0 0.0 0.0 0.0 47.0 0.06 3.66 1.26 -104.0 447.0 60.0 -574.0 764.0 959.0 0 5
7.0 135.0 -42.4 143.0 17.0 -0.13 0.13 -0.2 42.0 46.0 -153.0 209.0 601.0 -322.0 -43.4 26.5 -110.0 29.0 0.11 -0.45 1.02 -278.0 -72.0 -29.0 -384.0 326.0 515.0 112.67373 33.281055 -28.273212 28.0 0.45 0.05 -0.08 89.0 246.0 -76.0 -7.0 601.0 88.0 0.0 0.0 0.0 45.0 -0.02 3.44 1.2 -113.0 420.0 62.0 -559.0 779.0 969.0 0 5
7.0 135.0 -42.1 142.0 17.0 -0.18 0.13 -0.2 44.0 42.0 -155.0 208.0 603.0 -317.0 -42.8 26.3 -110.0 29.0 0.03 -0.4 1.03 -271.0 -66.0 -26.0 -388.0 331.0 525.0 114.15047 31.569721 -28.089289 28.0 0.5 -0.05 -0.16 84.0 246.0 -75.0 -16.0 601.0 93.0 0.0 0.0 0.0 44.0 -0.05 3.45 1.25 -92.0 419.0 58.0 -519.0 807.0 967.0 0 5
7.0 135.0 -41.9 142.0 17.0 -0.19 0.13 -0.21 47.0 41.0 -157.0 212.0 597.0 -304.0 -42.2 26.1 -109.0 28.0 -0.11 -0.37 0.98 -264.0 -53.0 -30.0 -377.0 333.0 520.0 113.726364 32.92309 -27.152905 28.0 0.5 -0.18 -0.21 88.0 247.0 -73.0 -21.0 608.0 99.0 0.0 0.0 0.0 46.0 -0.03 3.74 1.26 -65.0 447.0 55.0 -500.0 814.0 963.0 0 5
7.0 136.0 -41.6 142.0 18.0 -0.22 0.14 -0.21 50.0 40.0 -160.0 205.0 607.0 -323.0 -41.9 25.7 -109.0 27.0 -0.22 -0.37 0.79 -258.0 -45.0 -15.0 -368.0 332.0 527.0 113.055824 33.73309 -27.178684 28.0 0.5 -0.26 -0.23 90.0 246.0 -73.0 -31.0 609.0 96.0 0.0 0.0 0.0 47.0 0.02 3.79 1.23 7.0 452.0 64.0 -446.0 834.0 953.0 0 5
7.0 136.0 -41.3 141.0 18.0 -0.24 0.14 -0.23 56.0 37.0 -160.0 211.0 602.0 -333.0 -41.7 25.3 -108.0 26.0 -0.27 -0.37 0.66 -253.0 -45.0 10.0 -358.0 336.0 543.0 114.10253 32.86964 -26.658875 28.0 0.5 -0.29 -0.23 87.0 245.0 -71.0 -38.0 607.0 101.0 0.0 0.0 0.0 43.0 0.11 3.16 1.38 -49.0 418.0 59.0 -425.0 833.0 949.0 0 5
7.0 136.0 -41.0 141.0 18.0 -0.24 0.13 -0.21 56.0 41.0 -159.0 201.0 606.0 -328.0 -41.4 24.9 -108.0 27.0 -0.34 -0.31 0.67 -259.0 -48.0 23.0 -347.0 332.0 529.0 112.79573 32.688263 -28.770884 27.0 0.51 -0.34 -0.2 86.0 242.0 -76.0 -48.0 606.0 98.0 0.0 0.0 0.0 42.0 0.06 3.1 1.64 -41.0 407.0 41.0 -387.0 836.0 930.0 0 5
7.0 136.0 -40.8 141.0 18.0 -0.22 0.11 -0.21 51.0 42.0 -160.0 204.0 603.0 -328.0 -40.9 24.4 -107.0 28.0 -0.47 -0.22 0.75 -269.0 -36.0 25.0 -336.0 335.0 544.0 111.744576 32.26377 -30.694555 27.0 0.56 -0.42 -0.23 85.0 241.0 -81.0 -54.0 608.0 104.0 0.0 0.0 0.0 45.0 0.11 3.45 1.8 -1.0 444.0 26.0 -350.0 843.0 910.0 0 5
7.0 136.0 -40.4 140.0 18.0 -0.24 0.11 -0.2 49.0 43.0 -160.0 200.0 603.0 -333.0 -40.4 23.8 -106.0 28.0 -0.66 -0.18 0.79 -274.0 -15.0 23.0 -315.0 339.0 549.0 111.348236 31.157438 -32.337994 27.0 0.59 -0.48 -0.31 82.0 240.0 -85.0 -63.0 599.0 99.0 0.0 0.0 0.0 49.0 0.29 3.56 1.8 83.0 471.0 26.0 -324.0 840.0 907.0 0 5
7.0 137.0 -40.1 140.0 17.0 -0.24 0.11 -0.2 48.0 40.0 -159.0 192.0 613.0 -339.0 -39.7 22.9 -105.0 28.0 -0.9 -0.19 0.75 -269.0 0.0 38.0 -306.0 328.0 552.0 114.31879 27.960032 -31.470463 27.0 0.64 -0.5 -0.38 74.0 244.0 -83.0 -74.0 598.0 108.0 0.0 0.0 0.0 47.0 0.5 2.91 1.84 -4.0 459.0 17.0 -282.0 831.0 866.0 0 5
7.0 137.0 -39.8 140.0 18.0 -0.24 0.11 -0.16 53.0 39.0 -159.0 191.0 599.0 -327.0 -39.1 21.8 -103.0 28.0 -1.08 -0.18 0.77 -263.0 -6.0 61.0 -275.0 330.0 563.0 116.245125 24.434937 -32.03372 27.0 0.71 -0.5 -0.41 63.0 239.0 -82.0 -76.0 588.0 104.0 0.0 0.0 0.0 46.0 0.32 2.75 1.87 -11.0 453.0 5.0 -262.0 831.0 840.0 0 5
7.0 137.0 -39.5 140.0 18.0 -0.22 0.1 -0.16 54.0 39.0 -160.0 189.0 604.0 -341.0 -38.3 20.7 -102.0 27.0 -1.27 -0.11 0.87 -251.0 -18.0 68.0 -239.0 329.0 578.0 115.782776 24.70119 -32.388092 26.0 0.79 -0.56 -0.49 63.0 236.0 -82.0 -96.0 588.0 104.0 0.0 0.0 0.0 47.0 0.11 2.7 1.79 2.0 463.0 -2.0 -222.0 817.0 801.0 0 5
7.0 137.0 -39.2 139.0 17.0 -0.22 0.11 -0.15 52.0 40.0 -158.0 190.0 607.0 -335.0 -37.4 19.3 -99.8 25.0 -1.43 -0.02 0.95 -242.0 -13.0 57.0 -224.0 335.0 578.0 117.5066 24.464588 -30.456945 27.0 0.85 -0.67 -0.57 63.0 240.0 -78.0 -102.0 586.0 121.0 0.0 0.0 0.0 50.0 0.18 3.05 1.59 64.0 483.0 -5.0 -191.0 800.0 780.0 0 5
7.0 138.0 -38.9 139.0 18.0 -0.19 0.13 -0.13 57.0 36.0 -159.0 191.0 605.0 -345.0 -36.4 17.9 -97.9 25.0 -1.61 0.08 0.97 -232.0 -7.0 62.0 -173.0 334.0 577.0 117.70371 24.776491 -29.950956 27.0 0.88 -0.72 -0.59 64.0 241.0 -77.0 -122.0 585.0 120.0 0.0 0.0 0.0 50.0 0.48 2.95 1.41 110.0 482.0 5.0 -146.0 783.0 758.0 0 5
7.0 138.0 -38.7 139.0 18.0 -0.16 0.13 -0.1 62.0 35.0 -159.0 181.0 601.0 -343.0 -35.5 16.3 -95.7 24.0 -1.77 0.14 0.9 -225.0 -9.0 77.0 -151.0 328.0 599.0 117.15827 25.067749 -30.39038 26.0 0.88 -0.71 -0.54 63.0 234.0 -76.0 -132.0 586.0 121.0 0.0 0.0 0.0 47.0 0.66 2.41 1.39 39.0 457.0 5.0 -129.0 778.0 726.0 0 5
7.0 138.0 -38.6 139.0 17.0 -0.11 0.13 -0.07 56.0 32.0 -155.0 190.0 605.0 -344.0 -34.8 14.7 -93.4 24.0 -1.89 0.21 0.82 -226.0 -13.0 80.0 -100.0 330.0 589.0 116.3452 22.637148 -33.255875 25.0 0.88 -0.74 -0.48 55.0 225.0 -80.0 -149.0 575.0 122.0 0.0 0.0 0.0 45.0 0.53 2.23 1.43 20.0 443.0 1.0 -89.0 766.0 700.0 0 5
7.0 138.0 -38.5 139.0 17.0 -0.08 0.13 0.02 62.0 33.0 -155.0 186.0 611.0 -355.0 -34.2 12.9 -90.8 25.0 -2.04 0.32 0.72 -230.0 -11.0 88.0 -53.0 317.0 591.0 116.92941 18.4284 -35.242855 24.0 0.88 -0.8 -0.44 43.0 216.0 -81.0 -162.0 575.0 117.0 0.0 0.0 0.0 45.0 0.42 2.07 1.43 33.0 440.0 -8.0 -75.0 754.0 696.0 0 5
7.0 139.0 -38.5 138.0 18.0 0.05 0.18 -0.05 63.0 33.0 -158.0 178.0 604.0 -357.0 -33.8 11.0 -88.1 25.0 -2.22 0.45 0.62 -232.0 -5.0 91.0 -19.0 309.0 599.0 116.03289 15.784337 -37.55387 23.0 0.93 -0.93 -0.48 36.0 210.0 -84.0 -186.0 565.0 120.0 0.0 0.0 0.0 45.0 0.5 2.09 1.35 40.0 440.0 -8.0 -47.0 739.0 653.0 0 5
7.0 139.0 -38.7 138.0 17.0 0.14 0.21 0.11 72.0 27.0 -147.0 187.0 601.0 -357.0 -33.6 8.94 -85.1 26.0 -2.41 0.51 0.51 -233.0 1.0 103.0 40.0 295.0 591.0 114.99133 16.753105 -38.222954 23.0 0.98 -1.0 -0.51 38.0 208.0 -85.0 -200.0 557.0 127.0 0.0 0.0 0.0 45.0 0.75 2.18 1.25 63.0 437.0 -6.0 -27.0 727.0 651.0 0 5
7.0 139.0 -39.2 139.0 17.0 0.34 0.18 0.15 80.0 33.0 -145.0 184.0 605.0 -360.0 -33.4 6.75 -82.0 26.0 -2.62 0.55 0.49 -228.0 -9.0 109.0 77.0 294.0 589.0 114.662766 18.330097 -37.7931 23.0 1.01 -1.01 -0.52 41.0 205.0 -83.0 -220.0 553.0 126.0 0.0 0.0 0.0 44.0 0.92 1.96 1.21 33.0 425.0 -5.0 6.0 703.0 615.0 0 5
7.0 139.0 -39.8 139.0 18.0 0.45 0.16 0.2 65.0 41.0 -155.0 186.0 594.0 -352.0 -33.3 4.51 -79.0 25.0 -2.78 0.56 0.57 -222.0 -10.0 111.0 154.0 272.0 580.0 113.836914 16.58412 -39.541527 22.0 0.98 -1.03 -0.54 36.0 198.0 -84.0 -229.0 543.0 129.0 0.0 0.0 0.0 43.0 0.87 1.77 1.25 10.0 417.0 -9.0 18.0 697.0 602.0 0 5
7.0 140.0 -40.3 140.0 20.0 0.43 0.16 0.23 41.0 52.0 -180.0 190.0 600.0 -370.0 -33.3 1.74 -75.3 25.0 -2.95 0.56 0.67 -211.0 3.0 124.0 185.0 265.0 564.0 111.13901 12.908442 -43.821056 21.0 0.96 -1.06 -0.51 27.0 188.0 -89.0 -257.0 536.0 125.0 0.0 0.0 0.0 43.0 0.75 1.67 1.26 13.0 420.0 -11.0 38.0 681.0 571.0 0 5
7.0 140.0 -40.5 140.0 20.0 0.42 0.16 0.21 35.0 60.0 -180.0 189.0 598.0 -373.0 -33.2 -0.83 -72.0 25.0 -3.12 0.56 0.77 -203.0 11.0 144.0 258.0 250.0 561.0 108.56371 10.396717 -47.198498 21.0 1.0 -1.14 -0.49 21.0 179.0 -92.0 -264.0 529.0 134.0 0.0 0.0 0.0 44.0 0.74 1.61 1.21 27.0 426.0 -16.0 47.0 667.0 562.0 0 5
7.0 140.0 -40.6 140.0 20.0 0.37 0.13 0.21 35.0 74.0 -182.0 195.0 588.0 -373.0 -33.2 -3.98 -68.0 25.0 -3.32 0.59 0.92 -195.0 13.0 143.0 333.0 241.0 521.0 105.2 7.6 -51.2 20.0 1.01 -1.19 -0.54 15.0 172.0 -97.0 -295.0 505.0 117.0 0.0 0.0 0.0 44.0 0.87 1.54 1.15 48.0 431.0 -14.0 71.0 659.0 534.0 1 5
8.0 140.0 -40.5 141.0 21.0 0.32 0.05 0.13 29.0 81.0 -191.0 196.0 590.0 -382.0 -33.2 -6.94 -64.2 24.0 -3.55 0.59 1.08 -173.0 19.0 161.0 375.0 232.0 508.0 105.05073 3.6161027 -51.87726 20.0 1.03 -1.2 -0.61 7.0 168.0 -96.0 -320.0 496.0 122.0 0.0 0.0 0.0 44.0 1.0 1.25 1.12 32.0 428.0 -15.0 69.0 641.0 532.0 0 5
8.0 140.0 -39.9 142.0 21.0 0.27 -0.02 0.02 20.0 71.0 -188.0 196.0 589.0 -383.0 -33.4 -10.2 -60.2 23.0 -3.69 0.61 1.13 -156.0 18.0 157.0 449.0 210.0 455.0 104.983376 -3.6582758 -51.941177 20.0 1.06 -1.24 -0.71 -7.0 166.0 -95.0 -329.0 490.0 125.0 0.0 0.0 0.0 44.0 1.03 1.04 1.08 12.0 431.0 -10.0 80.0 636.0 513.0 0 5
8.0 140.0 -39.5 142.0 20.0 0.19 -0.05 0.0 19.0 63.0 -186.0 194.0 589.0 -383.0 -33.8 -13.6 -55.6 22.0 -3.82 0.69 1.16 -140.0 17.0 157.0 481.0 203.0 442.0 101.993195 -9.661125 -54.037643 19.0 1.08 -1.27 -0.74 -18.0 159.0 -96.0 -355.0 478.0 120.0 0.0 0.0 0.0 45.0 1.08 0.9 1.07 15.0 440.0 -7.0 93.0 630.0 512.0 0 5
8.0 139.0 -39.1 143.0 20.0 0.11 -0.08 -0.03 19.0 61.0 -183.0 193.0 595.0 -376.0 -34.6 -17.1 -50.6 19.0 -3.92 0.82 1.15 -125.0 22.0 133.0 549.0 183.0 380.0 96.95226 -14.760058 -57.78715 19.0 1.12 -1.35 -0.79 -28.0 157.0 -104.0 -370.0 464.0 117.0 0.0 0.0 0.0 46.0 1.17 0.72 1.02 8.0 448.0 -8.0 91.0 632.0 495.0 0 5
8.0 139.0 -38.6 143.0 19.0 0.08 -0.1 -0.07 22.0 58.0 -180.0 187.0 597.0 -388.0 -35.9 -20.4 -45.4 18.0 -4.01 0.92 0.98 -112.0 24.0 131.0 612.0 152.0 309.0 93.74506 -15.309363 -60.87728 19.0 1.14 -1.43 -0.84 -28.0 148.0 -105.0 -398.0 438.0 113.0 0.0 0.0 0.0 46.0 1.22 0.5 1.0 0.0 452.0 -11.0 93.0 633.0 488.0 0 5
8.0 139.0 -38.2 143.0 19.0 0.06 -0.1 -0.07 27.0 53.0 -181.0 182.0 590.0 -383.0 -37.7 -23.5 -40.0 17.0 -4.11 1.01 0.87 -103.0 15.0 127.0 645.0 130.0 277.0 93.93841 -18.605366 -59.505203 18.0 1.11 -1.41 -0.9 -33.0 144.0 -100.0 -410.0 437.0 113.0 0.0 0.0 0.0 48.0 1.2 0.21 0.97 -5.0 468.0 -10.0 85.0 631.0 491.0 0 5
8.0 139.0 -37.9 143.0 19.0 0.06 -0.1 -0.07 37.0 48.0 -181.0 176.0 585.0 -390.0 -40.1 -26.5 -34.0 14.0 -4.24 1.12 0.82 -91.0 1.0 100.0 695.0 110.0 206.0 97.83217 -20.890654 -54.506756 18.0 1.01 -1.35 -0.92 -36.0 144.0 -90.0 -436.0 408.0 111.0 0.0 0.0 0.0 50.0 1.22 -0.06 0.84 7.0 490.0 -12.0 82.0 636.0 493.0 0 5
8.0 139.0 -37.6 144.0 20.0 0.08 -0.08 -0.08 45.0 45.0 -181.0 184.0 595.0 -392.0 -42.8 -29.1 -27.8 10.0 -4.29 1.16 0.85 -69.0 -13.0 70.0 710.0 89.0 169.0 97.11764 -21.836498 -54.81298 17.0 0.9 -1.25 -0.85 -37.0 141.0 -89.0 -449.0 404.0 109.0 0.0 0.0 0.0 51.0 1.28 -0.4 0.66 -7.0 495.0 -12.0 63.0 646.0 490.0 0 5
8.0 139.0 -37.5 144.0 20.0 0.1 -0.06 -0.1 41.0 45.0 -182.0 171.0 584.0 -401.0 -45.9 -31.7 -21.1 6.0 -4.32 1.16 0.92 -48.0 -41.0 0.0 748.0 55.0 97.0 95.71047 -18.141333 -57.86543 18.0 0.87 -1.19 -0.87 -32.0 145.0 -97.0 -466.0 375.0 99.0 0.0 0.0 0.0 51.0 1.28 -0.58 0.44 -13.0 496.0 -13.0 47.0 660.0 497.0 0 5
8.0 139.0 -37.3 144.0 19.0 0.11 -0.03 -0.11 39.0 39.0 -181.0 168.0 591.0 -399.0 -47.8 -32.5 -15.1 7.0 -4.34 1.16 1.05 -40.0 -54.0 -25.0 751.0 37.0 53.0 91.14263 -18.472832 -62.41832 18.0 0.87 -1.11 -0.87 -33.0 142.0 -105.0 -471.0 370.0 109.0 0.0 0.0 0.0 51.0 1.28 -0.74 0.23 -2.0 503.0 -14.0 29.0 681.0 521.0 0 5
8.0 139.0 -37.1 144.0 20.0 0.11 -0.03 -0.11 40.0 43.0 -184.0 171.0 589.0 -390.0 -49.8 -33.0 -9.22 10.0 -4.27 1.14 1.21 -36.0 -71.0 -64.0 762.0 1.0 -42.0 92.09038 -22.364397 -59.800034 18.0 0.83 -0.98 -0.89 -39.0 140.0 -99.0 -486.0 346.0 114.0 0.0 0.0 0.0 51.0 1.28 -0.95 0.03 1.0 503.0 -14.0 6.0 694.0 540.0 0 5
8.0 139.0 -36.9 145.0 20.0 0.1 -0.02 -0.1 41.0 46.0 -187.0 169.0 587.0 -399.0 -52.8 -33.9 -1.85 13.0 -4.24 1.12 1.38 -23.0 -83.0 -90.0 758.0 -31.0 -115.0 92.15137 -21.521666 -60.12128 18.0 0.77 -0.87 -0.69 -37.0 138.0 -98.0 -497.0 341.0 103.0 0.0 0.0 0.0 51.0 1.28 -1.16 -0.13 21.0 499.0 -12.0 -27.0 723.0 559.0 0 5
8.0 139.0 -36.7 145.0 21.0 0.11 -0.03 -0.16 36.0 57.0 -190.0 168.0 589.0 -394.0 -55.6 -34.7 4.69 16.0 -4.13 1.09 1.54 -26.0 -89.0 -127.0 748.0 -38.0 -157.0 88.46417 -20.348402 -64.40941 18.0 0.71 -0.82 -0.44 -35.0 134.0 -104.0 -506.0 320.0 99.0 0.0 0.0 0.0 51.0 1.28 -1.4 -0.21 22.0 496.0 -9.0 -52.0 742.0 570.0 0 5
8.0 139.0 -36.4 145.0 21.0 0.08 -0.02 -0.18 29.0 55.0 -192.0 164.0 584.0 -400.0 -58.9 -35.2 12.3 18.0 -4.0 1.08 1.69 -20.0 -103.0 -142.0 717.0 -77.0 -228.0 83.187126 -22.814499 -68.72088 18.0 0.69 -0.74 -0.34 -41.0 134.0 -115.0 -515.0 313.0 91.0 0.0 0.0 0.0 51.0 1.3 -1.61 -0.25 30.0 494.0 -3.0 -88.0 755.0 600.0 0 5
8.0 139.0 -36.0 145.0 21.0 0.06 -0.02 -0.28 30.0 59.0 -191.0 167.0 599.0 -398.0 -62.3 -35.1 19.6 21.0 -3.81 1.08 1.84 -13.0 -114.0 -169.0 699.0 -91.0 -269.0 78.384094 -22.765131 -73.59387 18.0 0.67 -0.64 -0.34 -39.0 122.0 -116.0 -527.0 298.0 90.0 0.0 0.0 0.0 51.0 1.38 -1.69 -0.25 42.0 497.0 -1.0 -110.0 763.0 619.0 0 5
8.0 139.0 -35.7 145.0 20.0 0.02 0.0 -0.3 23.0 53.0 -190.0 167.0 587.0 -388.0 -66.4 -34.2 27.3 23.0 -3.58 1.06 1.87 -5.0 -119.0 -197.0 657.0 -126.0 -328.0 74.95752 -21.652096 -77.50365 17.0 0.61 -0.51 -0.34 -35.0 111.0 -114.0 -526.0 295.0 91.0 0.0 0.0 0.0 52.0 1.51 -1.78 -0.2 56.0 502.0 -2.0 -159.0 786.0 636.0 0 5
8.0 138.0 -35.2 145.0 20.0 -0.02 -0.02 -0.33 26.0 49.0 -189.0 165.0 589.0 -397.0 -70.4 -33.1 34.5 26.0 -3.34 1.04 1.77 0.0 -129.0 -221.0 616.0 -141.0 -374.0 73.201744 -23.347477 -78.51504 16.0 0.47 -0.42 -0.21 -36.0 104.0 -110.0 -532.0 284.0 75.0 0.0 0.0 0.0 51.0 1.62 -2.02 -0.1 50.0 499.0 -2.0 -182.0 800.0 654.0 0 5
8.0 138.0 -34.8 145.0 20.0 -0.05 -0.02 -0.36 24.0 47.0 -191.0 163.0 590.0 -397.0 -73.8 -31.9 41.0 30.0 -3.1 1.03 1.57 8.0 -143.0 -253.0 592.0 -165.0 -402.0 70.79434 -28.148907 -78.53783 16.0 0.34 -0.35 -0.13 -44.0 103.0 -112.0 -537.0 281.0 88.0 0.0 0.0 0.0 51.0 1.67 -2.26 0.02 46.0 500.0 1.0 -233.0 809.0 665.0 0 5
8.0 138.0 -34.4 145.0 21.0 -0.1 -0.02 -0.36 27.0 50.0 -195.0 158.0 600.0 -396.0 -75.6 -31.1 45.7 32.0 -2.86 1.0 1.3 18.0 -147.0 -274.0 536.0 -177.0 -422.0 66.40803 -25.167269 -84.36478 16.0 0.31 -0.31 -0.2 -40.0 99.0 -120.0 -542.0 278.0 76.0 0.0 0.0 0.0 52.0 1.7 -2.46 0.13 27.0 506.0 2.0 -266.0 819.0 679.0 0 5
8.0 138.0 -33.9 145.0 21.0 -0.11 -0.02 -0.41 26.0 53.0 -200.0 152.0 598.0 -390.0 -77.6 -30.0 50.5 34.0 -2.63 0.96 1.02 25.0 -154.0 -296.0 489.0 -197.0 -454.0 62.473026 -23.230183 -89.110054 16.0 0.29 -0.27 -0.23 -37.0 94.0 -125.0 -548.0 276.0 95.0 0.0 0.0 0.0 54.0 1.72 -2.57 0.18 17.0 527.0 -5.0 -316.0 822.0 686.0 0 5
8.0 138.0 -33.4 145.0 21.0 -0.13 0.02 -0.48 27.0 48.0 -197.0 150.0 593.0 -387.0 -79.5 -28.9 54.7 36.0 -2.42 0.93 0.79 30.0 -160.0 -315.0 464.0 -202.0 -477.0 60.62589 -25.315563 -89.89733 16.0 0.22 -0.24 -0.23 -40.0 91.0 -125.0 -545.0 269.0 82.0 0.0 0.0 0.0 57.0 1.73 -2.55 0.13 20.0 559.0 -14.0 -343.0 824.0 694.0 0 5
8.0 137.0 -32.9 145.0 21.0 -0.11 0.05 -0.54 27.0 44.0 -198.0 153.0 606.0 -388.0 -81.5 -27.6 58.8 38.0 -2.3 0.85 0.61 37.0 -163.0 -329.0 411.0 -210.0 -504.0 59.51658 -27.088167 -90.04881 16.0 0.14 -0.21 -0.16 -42.0 88.0 -123.0 -547.0 269.0 79.0 0.0 0.0 0.0 59.0 1.72 -2.79 -0.03 29.0 575.0 -18.0 -403.0 822.0 700.0 0 5
8.0 137.0 -32.6 145.0 21.0 -0.08 0.11 -0.54 22.0 35.0 -198.0 149.0 604.0 -377.0 -83.3 -26.4 62.4 40.0 -2.14 0.77 0.52 37.0 -168.0 -353.0 364.0 -207.0 -520.0 57.04755 -28.356056 -91.70031 16.0 0.11 -0.19 -0.11 -43.0 83.0 -122.0 -554.0 272.0 77.0 0.0 0.0 0.0 58.0 1.67 -2.99 -0.2 8.0 569.0 -23.0 -436.0 812.0 700.0 0 5
8.0 137.0 -32.3 144.0 20.0 -0.1 0.19 -0.51 16.0 25.0 -196.0 151.0 600.0 -384.0 -84.8 -25.2 65.5 43.0 -1.99 0.67 0.51 42.0 -179.0 -375.0 339.0 -209.0 -524.0 54.039547 -31.107283 -92.89943 16.0 0.1 -0.22 -0.07 -47.0 79.0 -123.0 -549.0 262.0 77.0 0.0 0.0 0.0 57.0 1.59 -3.12 -0.36 -7.0 555.0 -20.0 -480.0 796.0 712.0 0 5
8.0 137.0 -32.2 144.0 21.0 -0.1 0.22 -0.46 27.0 36.0 -196.0 153.0 606.0 -362.0 -86.2 -24.1 68.5 45.0 -1.81 0.58 0.56 46.0 -190.0 -393.0 295.0 -197.0 -536.0 48.03925 -34.57404 -96.0548 17.0 0.1 -0.26 -0.05 -55.0 75.0 -133.0 -553.0 261.0 87.0 0.0 0.0 0.0 55.0 1.49 -3.08 -0.49 -20.0 540.0 -19.0 -515.0 780.0 720.0 0 5
8.0 137.0 -32.0 143.0 20.0 -0.11 0.26 -0.44 37.0 38.0 -192.0 156.0 606.0 -372.0 -87.3 -23.0 71.3 49.0 -1.64 0.45 0.66 35.0 -209.0 -433.0 249.0 -200.0 -551.0 46.081596 -37.530872 -95.66194 17.0 0.08 -0.24 -0.15 -61.0 74.0 -136.0 -551.0 254.0 82.0 0.0 0.0 0.0 54.0 1.49 -3.02 -0.57 -19.0 528.0 -18.0 -562.0 749.0 743.0 0 5
8.0 137.0 -31.9 143.0 20.0 -0.11 0.27 -0.44 33.0 43.0 -187.0 157.0 604.0 -375.0 -88.1 -22.0 73.7 51.0 -1.4 0.31 0.79 35.0 -218.0 -447.0 232.0 -204.0 -558.0 47.849476 -37.47002 -94.19858 17.0 0.05 -0.14 -0.28 -62.0 78.0 -137.0 -554.0 253.0 84.0 0.0 0.0 0.0 52.0 1.49 -3.08 -0.64 -25.0 510.0 -14.0 -585.0 739.0 740.0 0 5
8.0 137.0 -31.8 142.0 20.0 -0.1 0.27 -0.41 25.0 46.0 -188.0 160.0 607.0 -371.0 -88.5 -21.2 75.6 52.0 -1.08 0.16 0.92 35.0 -220.0 -460.0 208.0 -202.0 -567.0 49.707474 -35.123844 -94.21851 17.0 0.05 -0.03 -0.36 -57.0 79.0 -134.0 -551.0 245.0 87.0 0.0 0.0 0.0 50.0 1.53 -3.18 -0.66 -34.0 484.0 -10.0 -612.0 716.0 728.0 0 5
